{"layers": [784, 30, 10], "weights": [[[-6.568864585927801e-08, -7.77975406507326e-08, 1.1527730735415876e-07, 8.931306326836569e-08, -1.3909135629872664e-07, -6.414433790500121e-09, -5.158054801264079e-08, -2.4013248748887585e-08, 2.1765363717605056e-08, 8.273410521510039e-08, 1.3693893050692598e-08, 9.626494097625589e-08, -0.00047304506389592437, -0.0008093246066311394, 0.00025187834926376047, 1.0544770150224353e-05, 1.0027116825228289e-07, -1.8665614375063177e-08, -4.507250022973714e-08, -1.5077060941173631e-07, 1.2841867355771956e-07, 6.899909304859959e-08, 4.944277193359311e-08, 5.992627196103425e-08, 4.844586432773749e-08, -2.2313480840326822e-08, -7.556546924784265e-10, 1.141312356744621e-07, 7.006574506062314e-08, -6.654225894298943e-08, 2.385415730344174e-08, 1.1981729936922052e-07, 3.010422077665439e-06, 8.722475037553978e-06, -0.00036936583457139726, -0.0005752084344130225, -0.0005100916614301533, 0.00028042394836332073, 0.0003955519018894233, 0.0034710934408339563, 0.004721360595747879, 0.0028662573243825504, 4.5148754766453976e-05, 0.017079325892746727, 0.05513124914389057, 0.028431070768489167, 0.00238908388861781, 0.00034609840591166, 0.0008686242522855091, 0.0016832423206265164, 0.0005824321986306377, -0.0001973744196574505, 1.3161646991228742e-09, 1.5699923151844516e-08, 1.5745428038217094e-09, -4.305407032263509e-08, 4.035283507992612e-08, -4.623076432715761e-08, -1.5522742147368973e-06, 0.00032552347958042093, 0.00022046734259033494, -5.480426412794608e-05, -0.0004656607967376065, -0.003080477395715232, -0.007330779952966673, -0.014748319564648405, -0.012523185673662049, -0.00031363875532615474, 0.014198748945722846, -0.04269258180267147, -0.021369372083306783, -0.04154176400475146, -0.028580592457522473, -0.06721015441158536, -0.052592845586713906, -0.016523557116794266, -0.00974130584197259, -0.0061386299994157355, -0.0021385399787301872, -0.0010494315839805171, 2.5651088453227072e-05, 0.00045012892050743557, -8.058863247900412e-08, 4.444509839278573e-08, -2.6339750976524366e-08, -5.901018110889387e-08, -3.758707631292258e-06, 0.0009339739129983846, -0.0009865250507444323, 0.0022493652359740924, -0.005568607736179942, -0.005773295646377989, 0.020454502514706523, 0.02247851129496124, 0.07454323130261882, 0.1491868610790049, 0.14683047087459905, 0.1452155436966461, 0.12285675535002916, -0.043796506360653326, -0.08608908496685311, -0.06922353247504155, -0.11087889983132777, -0.09861159836126186, -0.0294268060692721, -0.056540454200554424, -0.02864212201102821, -0.00647758862932872, -0.0020268367440838134, 0.0014275074563900308, 0.00016256936500745787, -2.3672085903425955e-08, 5.506355701546089e-09, 4.4807749686728455e-07, 0.00015024566344668092, 0.0031199031651072432, 0.007934853570484903, 0.007234938240374149, 0.032652698590411686, 0.0636283374990717, 0.05332427819114614, 0.0950758411194311, 0.1914658467988645, 0.21970147618384248, 0.1543580878963771, 0.1349753282939363, 0.030530001604020394, 0.02061495905980678, -0.07494958140759088, -0.09752335457376413, -0.050597463145553245, -0.0072258087471424965, -0.02675758970900665, -0.033743542704092036, -0.015703414182603365, -0.0552126056492154, 0.0010829957260118, 0.0013893476866828737, 0.0019926803289793374, 4.088052893677871e-05, -4.4412258973038916e-08, 1.3755610712850346e-08, 0.0004809221728297839, 0.006815677197866589, -0.004745031867663253, -0.03388152987710175, 0.0039562129258202345, 0.105390928916281, 0.18246140786345993, 0.25473373071034505, 0.2675907679917785, 0.24975554213327933, 0.15513807557659332, 0.09833547352846107, 0.1094968125546532, -0.038580975031925015, -0.09651319664924189, -0.07059640735448133, -0.11763288396955746, -0.20122080039025908, -0.21432025631893306, -0.06191068986539948, -0.06417769508537613, -0.09748915603208579, -0.04671392727483113, -0.0015318015810701557, -0.0010882045995537245, -0.0032057688199702487, 9.682716005103787e-09, 4.779815407488944e-05, 0.009468701577353161, 0.021336967996005485, 0.03147486058887293, 0.0773114866459255, 0.10566433742806786, 0.172370524412838, 0.2360158555990248, 0.38240934094580964, 0.27848576525541063, 0.08991679986607305, 0.012680247571044773, 0.15926325580690964, -0.012631160191374863, -0.00046264701943073155, 0.12455601076898008, -0.005665194163051235, -0.11935325631822485, -0.0768058776360722, -0.17768173697706596, 0.025192991769861527, 0.07181841510006146, -0.01392360421577176, -0.01844731705290643, -0.047792748075668606, -0.023944281378662117, -0.014080775749133901, 8.822734417733394e-07, 0.0017781922574403094, 0.013711100023029046, 0.05655344657796192, 0.05729063669526862, 0.13102857310790783, 0.253472320665864, 0.28738674262212954, 0.2908697888339646, 0.38720632453509424, 0.21675416439392123, 0.056789782784534, 0.05239979365285118, 0.04572542484439642, -0.00025694217196252996, -0.02701297427997378, 0.013583256685556863, 0.1518578749847472, 0.09974832087908807, 0.026547843699682275, -0.059902721020558256, -0.15426190982271054, -0.002852087301421551, 0.06632691250557819, 0.025487301792541647, -0.026997568908101507, -0.038755525019928926, -0.003402473670176693, 3.393923860346109e-06, 0.004705106484966197, 0.011749752151699504, 0.05979677234463047, 0.06569654444662285, 0.147175032695584, 0.1849770028813984, 0.24376698874508645, 0.26019468294242576, 0.14913517257551553, 0.038155273977905184, -0.15598204858637693, 0.009432689142372701, 0.004966901850230076, -0.010817645602703109, 0.058101276452759, 0.1106989431532752, -0.04066830132567446, -0.08540335014035354, -0.22543467433921693, -0.06007387773652821, -0.10666055343455982, 0.09822424511898699, 0.004345574657688288, -0.04269190917491616, -0.014117323203769785, -0.015621892560802979, -0.00029244351333434956, -3.7725333621592087e-06, 0.007696906982801128, 0.025811499453046748, 0.03387970697137406, 0.015631839025066183, 0.0686078857669672, 0.17718113491407733, 0.1964153653561585, 0.2255196584289052, 0.0661529861604586, -0.029047834433273554, -0.1885558651699844, -0.09374916793813391, -0.04158727717155405, -0.03875006617614529, -0.033510589017425804, 0.07773375464111998, 0.07199058679045482, -0.05670919493171046, 0.07036517693697397, 0.13658356991194903, 0.0019584526641319134, 0.19089886648113802, 0.20259684264809374, 0.040972152427072854, 0.015523447142815614, -0.0003277585115818407, 0.017767601087021093, -1.2287113582345294e-05, 0.0062159939255813255, 0.04937021534842162, 0.06655459576221961, 0.009172423094000874, 0.028913790239095787, 0.12042173879258279, 0.24710962141690085, 0.267824996330047, 0.19640082284656982, 0.001547566483209129, -0.04822928999465217, -0.24209260210533964, -0.04999707410308333, -0.12405677808889143, -0.18113268690465423, 0.1311759649667743, 0.32683405859263626, 0.35681163667771165, 0.13234601036713928, 0.24772878547262475, 0.10792745740388779, 0.32237103408513185, 0.2872568047997244, 0.09147595407922757, 0.014766420473246144, -0.0037985560154335, 0.005367641836746939, -0.00011412281868345121, 0.0033141629490179778, 0.021886642067165566, 0.08153552593768706, -0.007239441922730144, -0.028990925551275595, 0.053952293470094954, 0.17997412915989053, 0.25095628835062517, 0.18780270739640495, 0.12877551665869932, 0.058165598503760255, -0.1397554581065313, -0.18536360545797778, -0.11581602515602439, -0.1438624965316268, 0.060316092928340614, 0.39818972965327715, 0.3441870426071827, 0.22823275449567712, 0.16957118035111798, 0.12360065056885748, 0.31996963768037145, 0.236184240929805, 0.14381940384348174, -0.03868005955540893, -0.005127795559417506, 0.0022790644098335615, 0.0001179673136923634, 0.0039671762928269, 0.026548381334341863, 0.03380931957920013, -0.08590213639965577, -0.09944917511012998, -0.03142803149812586, 0.029211923542113764, 0.08553030662742263, 0.12493407569918522, 0.1569844147496742, 0.0951219285657783, 0.006567501920163012, -0.054093608031117985, -0.08811725747922575, -0.06783339997132062, -0.018414499380307668, 0.11923882129917815, 0.1770699065242879, 0.08154609803641219, 0.10372174321424109, 0.11802452981049222, 0.29459072461504665, 0.29634933728223095, 0.17469428227997374, -0.006355719356809192, 0.013054650397335688, 0.006015229695822983, 5.349656069708155e-06, 0.00594003225494672, 0.0183047503995638, 0.012488297851259041, -0.0592079985458001, -0.13670021658268347, -0.08930430792405139, -0.14868120891471884, 0.03473659708217807, 0.1264033916739135, 0.19540364944708696, 0.23181827515835585, 0.14738768486954684, 0.0368977696407492, 0.06160603844868757, -0.0713888161740865, -0.1927653171420178, -0.0737185339122009, 0.2278985014428523, 0.044771045762862165, -0.07144719125744432, 0.1490200437727957, 0.2862341885526228, 0.2723546536490869, 0.13610979561910613, 0.034923498211137605, -0.005980622869928964, -0.011576620660471456, 0.00013088095345120218, 0.006744344513197425, 0.012624260716557369, -0.03984195304074213, -0.11186908201974746, -0.0523658756634969, -0.17720264789922924, -0.1509680286880188, -0.08638606837333589, 0.04537842167001475, 0.12727011794914272, 0.21793003968724856, 0.2510259995721214, 0.18698620025576018, 0.09405503104120562, 0.021026026652570584, -0.27122259442031155, 0.07622938446508995, 0.13569817141382107, 0.10727679537709688, 0.09167135673369443, 0.20951773586858924, 0.1986578302198817, 0.2342824932550001, 0.11608169474565536, 0.006156148762393621, -0.021545923580586702, -0.0014031499727937002, 4.432576897226876e-05, 0.007842267558752525, 0.0021578006562725286, -0.062061446078414566, -0.10629087433135298, -0.035207898837726695, -0.19147840056356275, -0.08490496091880338, -0.142024522148659, -0.05519590522648169, 0.09537226422894866, 0.019766656559225392, 0.08741067721182673, -0.10245064526851701, -0.03406317337919088, 0.05632961390470035, -0.12422918422780024, 0.1568970912995706, 0.25365684324811016, 0.23654626947345592, 0.13071380378863273, 0.10497270852692367, 0.15331705775175414, 0.2629347866358604, 0.12542997894698166, -0.05487253108287177, -0.034421406865528366, 0.0002915333463583485, 8.50658626348732e-06, 0.004128624401156404, 0.01861017262647928, -0.020036481072556733, -0.03662794790097817, -0.12106387802548868, -0.18691167226648017, -0.14451416516270968, -0.05585690302612678, -0.027684091949512754, 0.005045932711288559, -0.14562307625263032, -0.1532274839232075, -0.15860195884499992, -0.016625045230916995, -0.05152413517037098, -0.13792133950032687, -0.03817808436642342, 0.16523084639910557, 0.17282534772994268, 0.09956775000192435, -0.05661742970952527, 0.02193426072228993, 0.14213267067016427, 0.006205302321442098, -0.1267925220193519, -0.04146199801432498, 0.0011976475872471511, -9.905745621141983e-08, 0.001322845692460806, 0.022806123409090197, 0.025488159147230665, 0.0565975945410949, -0.024503023042984694, -0.15017036564726138, -0.014929279371517582, -0.035159487714854894, -0.02356060197790648, -0.06072777718717864, -0.07487078482016381, -0.245386028345093, -0.13975993848192445, -0.07921725935620805, -0.08419894114422902, 0.019193700447803382, 0.12185149663130052, 0.01621289532985876, -0.031171109968149317, -0.14934164195584831, -0.011446081652684232, 0.08632714921897815, 0.042310517123401344, 0.013341313355820256, -0.07939792498725305, -0.012077605422955058, 0.002597685889955002, -1.1106784876276495e-05, 3.543470948016639e-05, 0.01601184646113252, 0.01271666406460032, 0.11067187533293799, 0.027031624614662617, -0.03703935107648726, -0.05169728932249693, -0.09346447620851155, -0.12613095663934548, -0.05677148507652613, 0.02217695703105759, -0.19027283627933775, -0.17197648870867424, -0.15270814124675894, 0.050525227359745, 0.17174408275991512, 0.1055493997532759, 0.042308189769087845, -0.11257178099806515, -0.15867119443486077, 0.014488668836591369, 0.09809971044984563, -0.06869679137188824, -0.07661024929225439, -0.07595492515759544, -0.01239223057493047, -0.0124731222928082, -1.5524522272578019e-06, 0.0025146314323727893, 0.014106361055870613, -0.005566430034334606, 0.07321880108367426, 0.09747004523177925, 0.028846477365562687, 0.08665036282785231, 0.056497304898425735, -0.07751127728650972, -0.06774104692792196, -0.18953211333409622, -0.033847189192751544, -0.02863434134513271, 0.009026554697039538, 0.009141552181708479, -0.14679694518483838, -0.05170007107381897, -0.01463312884461319, -0.08957905591313052, -0.10830529884755576, 0.03338161438448916, -0.002787155318171472, -0.23121065838816954, -0.0847279696472587, -0.07620010881100085, -0.013724039089796806, -0.0013588457059609696, -4.7553928691404024e-08, 0.006340125120868592, -0.00039817756520994037, -0.015758714398436086, -0.0033283405637671622, -0.012356964932806956, -0.12120869776896422, 0.09569253726724138, 0.10529931719608443, 0.05438493769707274, 0.026599230284055878, -0.11620818884050917, 0.021293213458504188, 0.13907676359289387, 0.08373891850776172, -0.044883709319008265, -0.1681147357635589, -0.19828006507019608, -0.13699636140546467, -0.10859596534432757, -0.14880023473906193, -0.059142567963885756, -0.05439110458878844, -0.2071065154051939, -0.1418414989591065, -0.06876753638306167, -0.004777565870585351, 7.884222814454353e-06, -9.110315940844305e-06, 3.265368582316449e-05, -0.010171193044550629, -0.016474124452812187, -0.08715696222501257, -0.12854401608556607, -0.03793143914474774, 0.025426342669015087, 0.02249604423133332, -0.027143059999443955, -0.004849256273933101, 0.0711098830529821, -0.009520718521071092, -0.1744099794853791, 0.04414575406206101, 0.052122748411331195, -0.18485171469691372, -0.3117531644325655, -0.2667131415366167, -0.21023274371730888, -0.2684562834683759, -0.19177900489648747, -0.0746824105000492, -0.14631163007188194, -0.14136539164050227, -0.045512033347795716, 0.012743489973224161, 4.168551635355324e-06, -8.748987895254416e-06, 1.8340233254536485e-05, 0.002600311180259065, 0.005179655803882872, -0.10344295943214363, -0.12414973819910013, -0.0036450651663463415, 0.08597979429403659, -0.024891020022630012, -0.02765969460920898, 0.11794984416947273, 0.16327188025027353, 0.17287160255012426, 0.0712334563995169, 0.032648605010231924, 0.08714960634276604, -0.11241741661372374, -0.23616628100554377, -0.3311508176640814, -0.21816312121735387, -0.3002481727933247, -0.18659383668960144, -0.04340083595115519, -0.10349531350449201, -0.0720787877086166, -0.03423217840341567, 0.0013797367262344063, 7.794038139424982e-06, -8.709273876180125e-08, 6.639544301077321e-08, -0.00043575762460448624, 0.0058837311639710396, -0.02482666156426849, -0.056583993020492274, -0.003410262833832525, 0.11253785476703752, 0.09739723592667097, 0.14895073432633424, 0.1753450876498135, 0.2901126840881747, 0.08210602624465854, 0.1315678367953374, 0.18207851370893433, -0.006109232812646574, -0.006503379616064739, 0.05210582650920051, -0.051308214861420724, -0.16675940760205507, -0.23244684882515698, -0.12715846592070632, -0.08572594372106777, -0.07940463526395683, -0.018541736428412843, -0.010182408665326341, -0.0015741300561623365, 1.9163773589467588e-08, 2.8853816039299092e-08, 9.914776793864445e-09, -0.0022922043962878332, 0.01583203569103779, 0.042459152585957574, 0.12002427375825397, 0.1203404951873858, 0.08568583503021832, 0.019400386422496, 0.08472413264003813, 0.15532286630691047, 0.1042497292655766, 0.30746016791246983, 0.37702357656073476, 0.3121759770395807, 0.1697350936824028, 0.1410252017309924, 0.1453952386042726, -0.04158529495435731, -0.055565035089081595, -0.06202359734284852, -0.09964030016864875, -0.11628637608833493, -0.06449089316619713, -0.005875556258577525, -4.716240169416796e-05, 0.0005892965111196946, 2.852703211009587e-08, 1.0662781473890425e-07, -4.578299254156173e-08, -0.00086349978081496, 0.005504863744769281, 0.035334190958755896, 0.05314157648231717, 0.03285002657003645, 0.06668752429091213, -0.008501148893680336, 0.04574804984761933, 0.09249094662985306, 0.09157385197459184, 0.12217803976499257, 0.08289823657099724, 0.08786742484897254, 0.05022381133758049, 0.06834561860816889, 0.03219923806188009, 0.03951093861510167, 0.035233657579731195, -0.07913463843458074, -0.10965955752442652, -0.06169548846944536, -0.016224073173106986, 0.003822144881310399, 0.0005940285555252646, 0.0007105520456017317, -4.494617395616235e-08, -4.767654653929532e-08, 1.2552748751279963e-07, 1.9903512170971606e-08, -0.000383927939646914, -0.003392532841711589, -0.009015145622984515, -0.010170438667777098, -0.0011954240630162628, 0.011799462391238113, 0.013870258395710872, 0.004333540722782303, -0.0004058578021373853, 0.0009881047704392231, 0.054407100669517795, -0.02218016219894966, -0.0919800827739282, -0.06302800379142696, -0.006407146592043553, 0.02801800757135708, 0.021776974856080343, -0.052718931280540275, -0.056344915457002216, -0.008862079038542296, -0.004281878314382112, -1.824935137762323e-06, 2.2936377277943474e-05, 7.97975574583553e-08, 1.5290321230900842e-07, -9.095916944575743e-09, -6.00327023361677e-08, -6.751221666372388e-08, 7.293564682885276e-08, 8.762396732912003e-05, 0.0002320589166155452, -0.001371935840359381, -0.009485670431247154, -0.008756548449471772, -0.002896665439126787, -0.009663373394746044, -0.008435094839283085, -0.0055350883251590235, -0.0006008507289922133, -0.01805261564294882, -0.03250305357311644, -0.010101496396345819, 0.003607056851620828, -0.013793081254789532, 0.004453268977019321, 0.010822043110760442, 0.010563568059100834, 0.0027778633956153428, 9.541884688188602e-05, -4.183854897415934e-08, 7.971419151372337e-09, -4.6158709812531184e-08, -4.827970200213727e-08], [2.3112866984546258e-08, 1.424519226066359e-08, 5.777823652915993e-08, 7.523167509979918e-08, 3.22055992384541e-08, 6.762299840585928e-08, 1.0704296596697404e-07, 5.506334534600783e-08, 3.440179752937296e-08, 7.960672062407305e-08, 7.864182472251479e-09, -4.407754208929877e-08, -0.003688677194542748, -0.00593415497594173, 0.0023845552944207113, 9.928323954678276e-05, 9.23449340905549e-08, 1.4482837635487973e-08, 1.6798530824924838e-08, 1.6694741420319624e-08, 3.6659677718717506e-08, 5.268003011252157e-08, -5.7847468033793404e-08, -1.39071124808316e-07, 6.640854148826396e-08, 3.498656753917573e-08, 1.2454488522636147e-07, -3.36762637741369e-08, -4.836604154300494e-09, 5.359990966489791e-08, -1.042399312593421e-07, 2.6283508052808287e-08, 5.74772682547407e-06, 1.6901428728979696e-05, -5.941845520689453e-05, -0.0001661813125405214, 0.0002007619711742884, 0.0003385623674157901, -0.0008498795697513208, -0.0015748848489601376, -0.010232072484119442, -0.006802041170564027, -0.0027112758282932755, -0.004630389461158066, 0.021427052252017194, 0.001569624880778619, -0.00932489003418166, -0.006672053837177157, -0.008857572530748618, -0.01343118393828997, -0.003508706814501895, -0.00020566170183791655, -1.7390381205959934e-08, 1.3808931197673951e-08, 4.488147565864015e-08, 3.811966518304394e-08, -4.398860244292115e-09, -9.722583681229856e-09, -7.542406038692487e-06, 0.00015689114230569046, 0.00011393544114147801, -0.00022236704054858655, -0.000879174250149396, -0.0006796211823009567, 0.009162717610160838, 0.03429581913593995, 0.03424900016897728, 0.04121609780966458, 0.07023732947971396, 0.09053233387654826, 0.09037374985292974, -0.009545613220878494, -0.011542460981567445, -0.026554073229378698, -0.045911128512023995, -0.08922682172556803, -0.034344859138255045, -0.02889981975369208, -0.0232377050452695, -0.007078510280113883, 0.0018747852752827483, 0.0005038333578742749, 2.4374910052494195e-08, -1.7630545325520636e-08, 4.670669771856687e-09, -5.6630845738811084e-09, -1.587326675379965e-05, 0.0005242977307262789, -0.0006314786899533736, -0.00362605744540555, -0.004374750263657315, -0.002831100911987495, 0.030335035886769987, 0.07718311086959435, 0.11982907172673257, 0.1878356429570138, 0.23629137261089056, 0.2202026264952454, 0.2716295854235085, 0.13126367580985232, 0.15985304896138172, 0.10980570265240935, -0.07897782944776643, -0.1265846602871639, -0.021632844494649115, 0.0013511893713468227, -0.04213167668362094, -0.02944842124337397, 0.00040120996022730113, 0.01718741998866008, 0.0023507692338056076, -6.816718620061434e-08, 7.820158863869592e-08, -8.290013445907389e-06, 0.00016994250122761296, 0.0019071562060309242, 0.002754487989753506, 0.00021060947027580788, -0.007482313835274269, -0.011707732348483964, 0.038537459856799336, 0.09642397079812101, 0.08637694195869952, 0.09675842943498575, 0.09372051222343081, 0.15199946489139227, 0.11940394477463862, -0.02850748443524925, -0.018258753841036174, 0.03755604380817893, 0.15719185358155227, 0.10947704305434303, 0.0314627356415124, -0.02578785327241325, -0.05013317508544315, -0.06532662202656651, -0.03858481620374302, -0.028139725815479872, -0.0025414212819761255, -0.005288822105146204, 1.3088880439673007e-07, -6.288305325126502e-08, 0.0015245708590364733, 0.00610765675556243, 0.0007533757652311642, -0.03747797554005695, -0.058179276128263645, 0.012858241008079925, 0.08613046315864177, 0.05827655324882314, 0.1607976265810286, 0.20502473125762988, 0.24473752065741886, 0.27622463036742917, 0.04883896231288843, 0.06431358711813195, 0.17989279426915045, 0.047907103194770526, 0.10833704229973697, 0.008404489308198843, 0.04946129033763491, 0.02858190445016748, -0.005522650034295793, -0.06278247132018744, -0.04782690741144675, -0.014151720473242153, -0.014786258983222016, -0.004887817334609664, -1.4421103615748065e-07, 0.00025771775421200684, 0.002632994178361345, -0.00203816173287706, -0.028245623420027757, -0.03501667919120352, -0.07907622950105746, -0.019098849433982743, -0.014949572301361303, 0.03620489012981001, 0.14758422915603617, 0.13880384556202657, 0.2135594806788574, 0.22295030626082143, 0.25158144600943655, 0.049439981655833916, 0.08398405839659004, 0.025236132170745253, 0.09114550613748158, 0.08693202919766727, 0.10743918909632935, 0.1986922475282191, 0.0666369409146648, -0.09619030073935643, 0.0011204411966192341, 0.002040314427663702, 0.00381600907048362, -0.003883642876752416, -8.25856888330449e-08, 0.0070741881327621645, 0.006767563444989019, 0.009371365987716792, -0.04054736417862261, -0.00747982557763355, 0.020675032080202774, 0.022063122992293373, 0.05670503732583756, 0.018562378526589797, 0.02367697052003257, 0.21194371420379676, 0.24740563859002176, 0.23228199499858965, 0.1543164534552594, 0.07592744670289014, 0.16844511012884292, 0.08560647619091534, -0.040160963784161896, -0.005742899944331265, 0.004331144600128304, 0.09963696921247209, -0.004421980672508573, 0.012394164819873866, -0.009491982760940362, 0.011502818061045464, 0.016938461097041644, -0.0033161657137486047, 1.8585354636476787e-08, 0.0018080239307611192, 0.010376496383552005, 0.018991930624036115, -0.0031420125369131416, -0.04507855642264113, -0.06895088596077574, 0.022239295894778705, -0.0676895628892727, -0.08386415405227389, 0.09693180440812492, 0.04028524609627185, -0.06762759542600122, -0.10696434079169721, 0.04402014748623437, 0.1473549156464005, 0.006276413011737523, -0.005449818962638631, -0.11499967323672709, -0.18926892469663312, 0.10439861523124608, -0.02973884828422859, -0.008410026688198296, 0.07021911016849083, 0.019590091733327018, -0.010041630391115351, 0.009067920666169235, -0.00293350561713011, -1.3550981325157973e-07, 0.0017743277023754996, 0.010565424655846175, 0.004776477170722911, -0.05326280488582352, -0.1737598918441496, -0.27967747074981725, -0.32487299135880027, -0.44346567422688077, -0.4930580367742671, -0.5036347784227124, -0.7172800317478367, -0.6740146759076814, -0.5801156860402029, -0.32238912958155264, -0.3197728544077146, -0.17353523915411947, -0.041474793748235025, -0.03461978576019207, -0.17860312702008987, -0.056385881602983474, -0.041612815291299704, 0.055160951326894386, 0.06501984211121704, -0.005441780467879761, 0.011520608125362973, -0.005227104553406559, -0.0001353699089383865, 1.5975335902761508e-08, 0.0014568203601721759, 0.015815970583841654, 0.03331660203360895, -0.10299563433043063, -0.2987980134458163, -0.4508220448952682, -0.7343418539405348, -0.8984914859922392, -0.9168196464815083, -0.9448643259466561, -0.8675524263423261, -0.6092781580480245, -0.4642676801548555, -0.40419397723020484, -0.19755728286096072, 0.10286275696265466, -0.07925330850681914, -0.11517379111027339, -0.1868418209990775, 0.03714427063385842, -0.022126973547873872, -0.007931219594524724, 0.0011853397166985287, 0.031740010637186414, 0.02307589096838179, -0.0032853885313849722, 0.001172214436108917, -6.086694976136047e-08, 0.0006738307806736975, 0.054415353563161545, 0.05221141472944033, -0.08947555825072445, -0.26839266629575015, -0.44426651668351885, -0.5485298675261834, -0.6538302286467277, -0.5616853150567329, -0.3145942957542738, -0.09217255243833772, 0.0744400089578792, 0.01006719532053418, 0.046919694528417696, -0.019707297274336653, -0.023508351008430427, 0.06261394551305251, 0.04721930643028466, 0.0017775613775573758, 0.023694991572706936, -0.10500103813511517, -0.05702010267537253, -0.008762158657814795, 0.01125816909851811, 0.037602951356211355, 5.4170043321077335e-05, 0.002386246013554808, -1.1895703249596526e-07, 0.001002468446974279, 0.027350224541882233, 0.04309461227007964, -0.06858924197125676, -0.13480706502058964, -0.13410092397499715, -0.10658919352060871, 0.058473869668624716, 0.08503317402184872, 0.29823745041259675, 0.327019550691339, 0.3506696439835096, 0.2888597395826756, 0.18788344100681323, -0.1425874795211144, 0.03757907220991362, -0.09532827258241315, 0.11466848644512401, -0.056699904267095126, -0.07764328016004278, -0.1697328323679235, -0.05336771691597714, -0.10604637643818342, -0.03587691573679187, 0.08473646050937275, 0.03583058536207792, 0.01022220640570693, 1.76194792752402e-05, -0.0004107678644736546, 0.0238634176438812, 0.04905774743138425, 0.030895250424596406, 0.08120038442206506, 0.1444395131909346, 0.18526913155181848, 0.261422843543009, 0.33934518330044616, 0.5473910206474689, 0.3571613021257361, 0.3080744552781413, 0.2119634345471905, 0.06453836545454883, -0.02655031165945664, -0.0017891861223931814, -0.18013662646189516, 0.01774977513760983, -0.022365684226446567, 0.005628658830584961, -0.03900898763941564, -0.00816055062972294, -0.0705093625365107, -0.03560495489879353, 0.0727515451891954, 0.018501457408480845, 0.0007268623378971536, 0.0001101620473539867, 0.0005110480957631364, 0.011899875561210414, 0.06064371851209249, 0.1549127441004629, 0.19408510201613233, 0.3124161597854253, 0.38063255302669596, 0.35455902583993, 0.3036155756202807, 0.2136523133606216, 0.07678279093566957, 0.1296114525103699, -0.01262743444173244, 0.0033794599481853423, -0.08865141875647016, -0.07743359603144184, -0.04062852596181761, 0.00856672040738082, -0.11926549945527966, 0.010840809901226194, -0.0370820741034116, -0.02107753463020284, 0.018699353918913975, 0.009520872769665246, 0.05859801475321014, 0.042605708546348584, 0.0006945301219588833, 3.6008245928251035e-05, 0.0023267051327079337, 0.007032391507802322, 0.08065330616712729, 0.19968489201753742, 0.2586781090472781, 0.38510969184984456, 0.3038569458649519, 0.10293550249746532, 0.09022362472468103, 0.04754874652523708, -0.04547084484579988, -0.08724897715039304, -0.06713708171710489, -0.1352110906777591, 0.017211661064885912, 0.024928158849050256, -0.11638241821204051, -0.14549556049432666, -0.13106983969333938, -0.058105043780503636, -0.05926713508079824, -0.09685548187779643, 0.007883953736072, 0.049947370267225566, 0.022148719995485698, 0.04261085156510275, 0.0005275231811861255, 2.0272102130449675e-08, 0.001312605759357967, 0.031916127527402735, 0.11554341108592171, 0.21005135190025614, 0.18978523215553234, 0.18531819701084268, 0.18216343616600958, 0.01680064621661225, 0.04682516551197213, 0.002726177722501759, -0.15007409129428156, -0.1658286850352886, -0.08120648000907019, -0.030164617041745306, -0.025911099579210933, -0.051064309821927, -0.005354185195172962, 0.05711196195001693, 0.08422224539698739, -0.031495669192832094, -0.02633479818817381, -0.02089670101987275, 0.035410432691408956, -0.01937603180521331, 0.029010277591299982, 0.07057839630324643, 0.0010528138695440434, 1.108678222173164e-07, 0.00038956874779182333, 0.043739303669484024, 0.11416901888281024, 0.09070805553666345, 0.06447933982818331, -0.08298174999488006, -0.17885135641497468, -0.11042664456633913, -0.085037030699594, -0.04929396755656844, -0.04278184030740197, -0.10726334175779742, -0.061418256275420656, -0.1340590658492681, -0.000889901101245931, 0.04870071444989508, -0.007567384626365545, -0.04856338459152852, -0.0689730540636275, -0.06972431333539085, -0.05154498167486452, -0.02414637711048622, -0.0022035513221822737, -0.05618930208005382, 0.04860784687042913, 0.05829800849058074, 0.0010918650366211098, -4.030474985550133e-06, 1.1002744847939336e-05, 0.020451700483116415, 0.046036381849545546, 0.006497285005489557, -0.004477112070549709, -0.06695029359877533, -0.039008266735747976, -0.027468923178331443, 0.08863950497611463, 0.12684158892029423, 0.026742652425239773, 0.02442017574939917, 0.04626459642903532, -0.008770997490923391, -0.031531525811863095, 0.026864197018084755, -0.05465792595852567, -0.012270108409488147, -0.04760628311010387, 0.09743574503272019, 0.08708258454826538, 0.11909439710047397, -0.09183023339011218, -0.0455579762847699, 0.06832990547854456, 0.04792373700601327, 0.01700635087373893, -1.7756823490532344e-05, -0.0030864542606497893, 0.022480657890932676, -0.024697489693723877, 0.03795673835251168, -0.07288586169651182, -0.028680647940713223, -0.07413473831807263, -0.16898523814185346, -0.07613959633812176, 0.0263677801014934, 0.04898932774795829, 0.026507578960343666, 0.13796517663271524, 0.06210095493697844, -0.15736368609345278, -0.1682858719929024, 0.1510512913842125, -0.07694513059879858, -0.03375900916988702, 0.001040118274600747, 0.03846434428792019, -0.04542736265961684, -0.08806436929146014, -0.06994665916962382, 0.010905052480354165, 0.021595160162020146, 0.0018301466623758657, 7.041504971781957e-08, -0.007202625529310441, -0.00044002783203882787, 0.023499324752452762, -0.026308977284057275, -0.03339713958981377, -0.04683749911873729, -0.17552815842262826, -0.056320940618657916, 0.013015717259187628, -0.013996993345495869, -0.07631004719706302, 0.030401431164588693, 0.19302633179836887, 0.04055486995147559, -0.06905614737175224, -0.122485430553267, -0.035280781880485584, -0.17938553309893884, -0.35922521719175976, -0.23621021866084418, -0.03779736473290515, -0.06998389646942789, -0.09216841173725372, -0.07073062988053364, -0.001659920023646701, 0.006704387125798593, 2.5285942759823925e-05, 8.02035178383975e-07, 0.0007902176359664697, 0.014047578900864397, -0.024257768632845147, -0.004687895411097688, -0.0716627774463759, 0.030016154458634384, -0.006742907862314354, -0.09081957803586314, -0.13504226458009608, 0.09807181668950553, -0.05389216276569351, 0.0063290885882762524, -0.013480794653819876, -0.07573457267406113, -0.063982963222486, -0.01763182103070497, -0.055967274137288935, -0.11338152883530815, -0.15076763132020238, -0.09392859984934784, -0.07265781206768897, -0.07955488225473913, -0.006935791192398297, -0.022181159438905508, 0.018169520493544814, 0.00929989461069812, 4.2066473084695084e-06, 8.351276540756496e-07, 1.3051774268077039e-05, 0.015402646132158561, 0.00694839348584656, 0.057264547516057876, -0.025343303009339548, -0.11327045173208761, 0.00485724114608678, -0.16519710770316104, -0.15037408896197219, 0.10439189584448287, 0.045577735278319216, 0.024460808954351314, -0.04104575425729849, 0.11772432037176041, 0.10062253955610415, -0.00627513885907602, -0.03450714918915708, -0.13627478222269981, -0.007664380822859132, -0.016589469482461826, -0.18740774387079268, -0.12266055664548202, -0.002104113176748409, -0.0014839251319176932, 0.004305553988070353, 0.0005495786280231889, 7.664633444510815e-06, 1.4706288637012093e-07, -9.53913966412638e-08, 0.0012510065567797764, 0.06060550941515622, 0.07738141264276932, 0.05211179603939088, -0.0849833127895614, -0.033838175493799194, -0.08535082822129768, -0.020318366460982, -0.11926220001007075, -0.013227549696154854, -0.15957385491223117, -0.009395113585135352, 0.023852317709504606, -0.01956797430645036, 0.07532624054090618, -0.03416478690820994, -0.042317796077178796, -0.020279886064761953, -0.0356511855059113, -0.021714011123312976, -0.028248227488617255, -0.030415010668289576, -0.014627101428903886, 0.002434205632948791, 0.0011635515035680539, -5.88298851350424e-11, -1.746964162351352e-08, 1.902382687465207e-08, -0.002937146208545742, 0.026778144204400646, 0.020302669885120812, 0.00928170267104198, 0.00754485361356325, 0.11914504864155268, 0.16407238805156796, 0.14253354084746472, 0.031892598790520935, 0.009070575568234025, -0.09317053985005996, 0.18203096121195145, 0.14678067777923612, -0.07522622702260857, -0.06599889271075406, 0.04361916627854074, -0.056603590330943324, -0.1250953288638669, -0.0959965470361601, -0.051627269114127565, -0.06481235650226025, -0.03540055181066158, 0.00028199068306202424, -7.702398466181672e-05, -1.796257422247523e-05, 1.424663041694155e-07, -3.810731557843271e-08, -1.2488603299472961e-07, -0.0004443798093453278, -0.006361514172805491, 0.012238571557142674, -0.01637910410066863, -0.011290529812420524, 0.005396198092980218, 0.04358158819659392, 0.10555380003791008, 0.12335674340736107, 0.040958785922950554, -0.039727189605131025, 0.02389226547407654, 0.05094642540347934, -0.11019288662821038, -0.025932615146943973, 0.05907831812958995, 0.010978153899861648, 0.002878543749298741, -0.04283581950368847, -0.05910002161390926, -0.018229851111791436, -0.012336660226025826, -0.0023448165711948024, 1.652359316989854e-05, 1.9034005241599764e-06, -5.82915154017183e-08, -5.851556280894513e-08, 1.6233846663401422e-07, 6.400286668874131e-08, -0.00011195819145761349, -0.00017567830915998117, -0.0024215644692666444, -0.005364113056855869, -0.022258751690409126, 0.03383028613137168, 0.06643877450931154, 0.09640772175930888, 0.007651438561497428, -0.021680074484974055, 0.029837716236933015, -0.017639837317933012, -0.019546537947765365, 0.03609303894121829, 0.03622360036736101, -0.008617287339681258, -0.008669974475102326, -0.0247421257005702, -0.03356008344632697, 0.00026508458937994243, -1.99727461145233e-05, -1.3529744460978836e-06, -8.249345633862314e-08, -7.664457587704855e-08, -1.2536888185685512e-07, -3.908842096564891e-08, -5.026422203182944e-08, 6.285778768892845e-08, -5.4865472407510274e-09, 2.0522481645216754e-08, 8.168761741549496e-07, -0.00029975749276914737, -0.0007420214348984543, -0.0011030142729887818, -0.00035139136397904487, -0.008639672341110705, -0.006863675362757667, -0.001375579045375346, -0.0022771111237204567, -0.007721827116271782, -0.001013421341591809, 0.02127025996678675, 0.006551487889460695, -0.0008115416394983166, -6.4020303161892e-05, 8.729225417755458e-06, 0.00012975164736300353, 9.441869414493109e-05, 4.725762809054052e-06, 7.301096522784765e-08, 1.690808023922087e-09, -1.0881010401220277e-07, 2.6809503756443624e-08], [-8.030646712291646e-08, -1.0230096706377722e-07, -2.359894131025127e-08, 4.9471538840183474e-08, 5.120817690600767e-08, -1.0549163511379296e-07, 2.0300352480276526e-09, 6.48215616892371e-08, 1.292480150379836e-08, 1.0003097833693666e-07, 1.0229932530032353e-07, -1.6861372996165073e-08, 0.0035506410867622612, 0.008269581866014675, 0.000550377181704736, 2.288675584349276e-05, 1.4646331425292224e-07, 3.4005985828534593e-08, 4.326413651117787e-09, 1.081459719543313e-08, 8.728376452363382e-08, -2.1185017494166522e-08, -7.952979414737678e-08, -8.444996169420083e-09, -7.052256682292019e-08, -4.1574845597454266e-08, 5.108362768780948e-08, 3.320384060572574e-08, -7.303472724627973e-08, 9.822139637369814e-08, 1.4625057079204895e-07, 4.979737692444464e-08, 6.228314625464354e-06, 2.3753383807920817e-05, 0.000889200442048421, 0.0006525914744258913, 0.0039394551701378774, 0.0016486377482994956, 0.0021531494355017094, 0.005027782013507674, 0.01802687898252254, 0.018367453343835754, 0.011735908886948754, 0.014414081359105428, 0.012925899029336366, 0.007828743142476884, 0.010875757723395968, 0.01876666388693752, 0.012970075159723241, 0.005879900762832524, 0.004560295085336029, 0.0016466790822204274, -4.9254221357760505e-08, -1.9049895691304984e-07, 2.3696584198796393e-09, 1.3800234916342605e-07, -9.014558185545584e-08, 4.538826598838805e-08, 2.611715812033773e-06, 0.00011351654632724255, 0.0005669717490053861, 0.00016534405460339764, 0.0017036878326550213, 0.004781794158928263, 0.005444126335620134, -0.004392768003892565, 0.015287263579637627, 0.04016209093175352, 0.03607859196129241, 0.012739408097206948, 0.08390738556489959, 0.0852301628729383, 0.09473207592395087, 0.1061807699091754, 0.11656781239048802, 0.07805945909928633, 0.03682826191830328, 0.021176620327688515, 0.018583659118416453, 0.015772921513068888, 0.009024002358240909, 0.0016840051040575425, 8.436471132228414e-09, 8.621746120431523e-08, -7.091571635370398e-08, -1.0771081774596894e-08, 5.2297433425929866e-06, 0.0005376371536507228, 0.00027412443154501315, -0.0006206832281937966, 0.017858671438594594, 0.011045227555520742, -0.01260067627263026, -0.002694712439006866, -0.008335983904774231, -0.06340540392218447, -0.09955264500319126, -0.01103463199865899, 0.05274745451930455, 0.1052728834618136, 0.07616413362981587, 0.07295479722281642, 0.10512945787529286, 0.17055454300107298, 0.11974593014033594, 0.06619454670726588, 0.018021103725408456, 0.006215217246786516, 0.008215952434523343, -0.004139119764020199, -0.00095748110042239, -2.8864934495426133e-08, -2.201349947273574e-08, 1.895356842228606e-07, -5.764562155264732e-05, -0.00015906369671286194, -0.0005077635596137373, -0.028443148115952638, -0.020431027170715856, -0.09806659220970625, -0.14321830424994603, -0.14894608642853185, -0.13271014195795924, -0.18375273198538647, -0.25240329071240103, -0.18590678033994426, 0.013641347349026734, 0.05852717264286412, 0.11921469948966018, 0.12167692116817774, 0.24112838163097897, 0.21103815866167822, 0.10456544153302406, 0.0854252350993484, 0.07282633412100596, 0.029560244034464615, -0.0038506962442671436, -0.00762166304948872, -4.4095966874917956e-05, -0.00012407333509956443, 1.112989360512892e-08, 3.166949272468869e-08, 5.636775275946052e-05, -0.0043596786077236245, -0.026249218157027174, -0.03516396287408238, -0.019315344850217003, -0.10467784021283119, -0.08315593222629972, -0.035530614288381314, -0.02419432479914807, -0.07591970040981287, -0.18687284758674333, -0.08105495822254893, -0.020322191569157478, 0.03315627094797084, 0.059469051835259766, 0.027236782629577634, 0.07454393908399713, 0.08918138855646503, 0.05192180537177123, 0.07177023455162292, 0.0676103627893368, 0.06376097757435102, 0.00019881668479993528, 0.0003145878047106339, 0.0028775818646133537, 2.608007439325979e-06, 2.814561095175236e-09, -3.9196706135818896e-06, 0.0022032842152242054, -0.009229618578956296, -0.02611810680593554, 0.04173866456240055, -0.006670040120237644, -0.06903737817997367, 0.021255927991774417, -0.0359403157592276, -0.008901591770079298, -0.12314665388194311, -0.10400052766798032, 0.044351654766708756, 0.08052853887503486, -0.0249961031857321, 0.07806280874157048, 0.01881415040330661, -0.05545557740126279, 0.009207367898606982, -0.0131955642236634, 0.02233247699708377, -0.030325578713758013, -0.045178997287252214, 0.027856838483722796, 0.037654130067387284, 0.01155250118770366, -0.0006932171458583308, 8.286324254531464e-06, 4.6504215823624415e-05, 0.0011101199165324386, -0.024010259144103027, -0.015691734169561235, -0.04768407902363313, -0.004789893712731103, 0.10512303344411418, 0.06556630166993432, 0.03541620366796491, 0.03705643604146577, -0.0652741195784742, 0.03008865955202753, 0.051235624183, 0.1612140659684476, 0.19284255258776872, 0.19757668114689686, 0.1474503264098276, 0.013146395754445542, 0.07814037458693515, 0.08630379486475422, 0.0945081547674778, -0.00798348595779747, -0.051453112353129035, 0.034099588486056535, 0.03310853277603431, 0.02474420766507233, 0.0011798852754492245, 3.307540521628871e-05, 0.009047792965035238, 0.0074730941586217845, 0.0028296113895440026, 0.020453942886730435, -0.010605032466955027, 0.03214047371575265, 0.08573393446262413, 0.1599533221592219, 0.13272298776083072, 0.03200734519400411, 0.017354501531739255, 0.15720000379225968, 0.15258683491414385, 0.28974134337110635, 0.29091480062900843, 0.02363712635828942, -0.173512207312523, -0.24459432807407935, -0.11215184706096598, -0.03960813320567691, -0.07131535530069243, -0.06843275203852107, -0.07589323735220868, 0.02606409692698122, 0.004913094822989629, -0.007309310846697452, 0.00012246757298727535, 5.279300781653017e-05, 0.012575736417194835, 0.02615739850572387, 0.04031030080950189, 0.07040458477634474, 0.013146658215728324, 0.14350934677001143, 0.28922920864563206, 0.25041254737541646, 0.052619230757790306, -0.02611275921547052, 0.03268591383058672, 0.19043405650369055, 0.1481371815545996, 0.11339273754478643, -0.10314568148804705, -0.2803126590317146, -0.43053059125726606, -0.366515695456642, -0.43839370363565905, -0.39488036412963257, -0.3016060400637575, -0.2110461365338322, -0.21631405281252802, -0.08710147156364383, -0.03371224198851947, -0.004846186986546506, 0.004052303240675857, 0.00011675416557274443, 0.012839366565781427, 0.04018983921057984, 0.026478855607043165, 0.055841690972981695, 0.0756346274639196, 0.1411652289806679, 0.10585014462789714, -0.002862739674956741, 0.06346838759798222, 0.013511899132234127, 0.15677056958830562, 0.2006867977992838, 0.1400043310402535, -0.1693591748231289, -0.2784153618886305, -0.2796086664602715, -0.35696899947783334, -0.31684227926714514, -0.2680773260451613, -0.3346541199196779, -0.3789192313130143, -0.3061847679470304, -0.30599738790584385, -0.15924177807275236, -0.031506113490584534, -0.0034687704076156794, 0.0012860634152685574, 0.0005256298134355794, 0.008329780734839072, 0.06934357190664217, 0.027101233114139076, 0.10021319133623366, 0.13769699857340378, 0.10928270940945675, 0.0008700337445319272, -0.09061510282110552, -0.0008622246184176541, 0.03715799460389062, 0.202432277996313, 0.1936328440283183, -0.0626338379662669, -0.2445042737976079, -0.29171536650622054, -0.06973352138686774, -0.17233276853563903, 0.06894688073559181, -0.05479119122386627, -0.15623898749241463, -0.24485920298515879, -0.20205257887526257, -0.23859680559824153, -0.15543833551073197, -0.05349237868422316, -0.01555331194125729, 0.0006760651747233202, 0.00016117831358401064, 0.006206807772844374, 0.04725955932268284, 0.023227155063434164, 0.11023576819122932, 0.05290747064247954, 0.022801094919146267, 0.13917309215082765, 0.22070367233790017, 0.1143586073966801, -0.01434158289922594, 0.17720732099366263, 0.05606177805142569, -0.24490890014694006, -0.18867515382932784, -0.007405566609507757, 0.12185466476012173, 0.09207467677344677, 0.37678861391283036, 0.20044376124566723, 0.19945319816585425, 0.02848318682332766, 0.025458407273650313, -0.05325489116062255, -0.0942373218640056, -0.03866361938517955, -0.015968552132454645, 0.0011098161886152155, -5.879332617762065e-07, 0.00746474851575165, 0.023378411940558286, 0.006458760659432978, 0.0808337216288084, 0.05048495703006718, -0.00804265506320941, 0.057239243696889236, 0.056441615317254785, -0.07760865317659553, 0.07233642441436966, 0.13979474020888483, 0.09246568725746805, -0.09796809818491072, 0.06863048562043779, 0.13687004573920983, 0.015618027823075553, 0.004704310029711464, 0.1918634680109012, 0.21859151260595666, 0.31366727053828897, 0.13499603009054992, 0.010894712320517056, -0.035615725336119175, 0.03324980800295358, -0.030911337421872426, -0.025058262329552473, -0.005505840182518145, 0.00011876739967941958, 0.004686644314806519, 0.01622381339222181, 0.02587464250121691, 0.03821207139148942, -0.07435940963033316, -0.07978092096824926, -0.05294807099253735, 0.026039872299290737, -0.08362324057682892, 0.117468386875198, 0.036183955247665066, -0.10650395989064353, -0.26688820041454797, -0.1294059539457285, -0.12789040242536603, -0.15035684269734764, -0.06641179498911916, 0.30470044781728367, 0.20197853736403312, 0.32170381715807495, 0.09270823616956099, 0.058342185607703635, 0.07551232914961424, 0.05321016034837371, -0.016632914003933606, -0.02085712219968329, -0.00041353715633770413, 3.536040331148583e-05, -0.0008685704270516399, -0.0012161371541664556, 0.010216083813714008, -0.015660180411284582, -0.05840687231597286, -0.04485849662793256, -0.10657659006923631, -0.1198233651246377, -0.10945473957188678, 0.14592013208371873, 0.1295238827860397, -0.12498966432664621, -0.28478339339467, -0.2179479074528, -0.3050302603145584, -0.2796284972906636, 0.1167198100171295, 0.25080056182765764, 0.18212537921726366, 0.15280437213648257, 0.11361852709708781, -0.0012780443878804724, 0.07399731529897298, 0.0445511018611367, -0.02333018310599392, -0.05818955654367089, -0.0005654869464673569, -2.004060390445623e-05, -0.000453219993909164, -0.002600600649763748, 0.015212271121165091, 0.05174192906003413, -0.04132648239631348, -0.07225714836517831, -0.08169686277595375, -0.07000829372399411, -0.05774251916900364, 0.14921900482564826, 0.19539894749660514, 0.0031963254436005685, -0.010612139904529277, -0.08182684648321821, -0.1971210782508383, -0.20103143759329675, 0.04274842427934733, 0.17490306539287023, 0.16610613707822833, 0.05996629792446642, 0.035329576103045705, 0.10520206574681464, 0.09446742028786753, 0.011721240776047276, -0.048644083273959804, -0.03648512206154035, -0.00042028973135317535, 5.936218102024551e-08, -0.00013626133891446457, -0.0036208646509559733, 0.008617419122951085, 0.002559209892532876, -0.02267287829361797, -0.018340575383487365, -0.04859589720634829, -0.08087130645543554, -0.07732682332853395, 0.10349057193205843, 0.10931615560729185, 0.011196108088180216, -0.0054017154995029916, -0.06745434151266681, -0.17469806437281665, -0.09014046325796558, 0.21108551438812567, 0.31064370711993794, 0.10733677566022955, 0.05785250830851109, 0.012370866944977308, 0.12208040892736186, 0.06883625237143004, 0.018074571499706135, -0.02553550966750264, -0.019592660325718506, -0.007311033225265832, 5.779270212194827e-06, -3.7691740942200906e-06, 0.0013728149247966373, 0.0027710711188164844, -0.0015952357482689674, 0.052602238390629434, -0.008717725384252353, -0.02924651832921352, -0.040783609577724415, -0.02375513088563922, -0.023297780522460898, 0.05595303271076071, -0.09908500182847245, -0.2609037308207683, -0.031125521665052988, -0.045886941217422234, 0.18974944610920733, 0.32602616179676036, 0.1044175306096115, 0.06369134112850418, 0.011825990410640206, 0.0397933016471164, 0.056413213457944304, -0.017712771845994995, -0.03386312565857429, 0.005485539786041471, -0.005670534731364514, -0.004033326267856981, 1.6596448719510525e-08, 0.00028439576598384477, 0.020804740295405626, -0.010142803043720032, 0.023760871055041637, 0.0033273930581515614, -0.052312380784320496, -0.08457487045049705, 0.016545466796814033, 0.020005184605711306, -0.03402600877846069, 0.08109570331687797, -0.1255019111851982, -0.3775561394651223, -0.034963142070910176, 0.12974766529250417, 0.2449128112983266, 0.22650404255453316, -0.006999323924397455, -0.013983525959452741, -0.05990992606868413, -6.138569738683672e-05, -0.024990147483862784, -0.07190141621772156, -0.026387433894155567, 0.0009811415667754662, -0.009497168785109623, -0.0001490597253898114, 1.2108831079604793e-07, 0.00016132231328227825, 0.013885706949952547, -0.0036701359005619845, 0.004679872021660521, 0.0525584386434689, -0.07614579294928128, -0.18627525407172352, -0.0792270251583814, 0.12229476449729441, -0.03829597802090516, -0.11669673766775725, -0.26228520739204375, -0.23107758596299915, 0.08321780975840154, 0.16491251222198297, 0.0727333919376271, 0.07541487423349702, -0.089804122604193, -0.06281371810273999, -0.16884249725727818, -0.16625884425573148, -0.09774190068153613, -0.10482628261256573, -0.00992770337012121, 0.009893103451494124, -0.0022576578198545577, 4.180076336668514e-05, 1.341583559454987e-07, -0.0005294294294419346, -0.005601534883109415, -0.018408643020698532, -0.026777811456631932, -0.0035469858673827697, -0.030682050834239177, -0.07047477263991805, -0.09155914492776455, -0.10925243924587993, -0.04616653472735255, -0.09808668777945895, -0.10173005629174578, -0.06510712306676597, 0.27184453672633274, 0.15733058793456842, 0.10886465592398914, -0.0732407905200136, -0.15977281772563526, -0.07615377161029077, -0.021646778130118508, -0.10056462116873643, -0.09665732193207031, -0.05510617780051815, 0.007557709267541597, 0.00983744217647058, -0.0018590344638234498, 2.9534626829907985e-05, 9.11784403426906e-08, -5.1066524859701865e-06, -0.005979271725018953, -0.004302420243097639, -0.04615047755220528, -0.04856001271186093, -0.128672157076785, -0.059070305466120784, -0.03764875356686554, -0.15002535245195198, -0.15158099027550362, -0.11043631194335835, 0.1201095008038586, 0.18177147801635188, 0.22946158997549118, 0.21026794822696226, 0.1557024147198383, -0.04219707115442784, -0.0305520782937449, 0.008385397610939895, -0.031945678462231335, -0.1472170147414243, -0.07445149396523709, -0.025964937328317853, 0.003043554796966223, 0.002038828865468764, -0.0012736813508695234, 5.450441011246451e-05, -6.210596513960824e-08, -3.2797896208555048e-09, -0.004499314132724988, 0.0032614411128768788, -0.018757425311570257, -0.020952658878461455, -0.02927582962391099, -0.09432309720402535, -0.08807021771363564, -0.130181725488676, -0.0788364558453016, 0.06704999483818769, 0.16272853024650719, 0.10767350602218212, 0.32024770225525184, 0.21572425244423585, 0.11522453205599781, 0.011514798788610076, -0.026445265998060772, 0.059712149295929044, 0.005793768992318268, -0.12088866656752573, -0.06142885401973648, 0.018875864645505638, 0.011892543430221725, 0.007165998379938941, -0.002286382009019335, -1.1509663284364496e-07, -8.9431077961663e-08, 3.8652130772391374e-08, -0.002530384071092653, -0.008418997798084367, -0.028454517387982933, -0.019842522088172537, -0.039168766362010464, -0.052145535910357324, -0.13835489610304968, -0.15353206994924004, -0.1385858711133844, -0.02363111299519728, 0.07175918074295115, 0.12774804496439107, 0.24765824109868245, 0.19261651328968912, 0.16576495111493267, 0.2177384179882837, 0.05780152361863816, 0.05044131998059674, 0.10861485322571938, 0.0233572949035805, -0.007088570186762313, 0.026782768561130724, 0.009340993404420536, -0.0008966304743449566, 8.509620989686127e-06, -1.6494014007438948e-07, -9.425918711841044e-08, -1.2074534391118033e-07, -0.0005379702031017246, 0.0007775988645027502, -0.006805301821843744, -0.01909684870221063, -0.03672746351040135, -0.053328257651726434, -0.06646256170528755, -0.08881831528766619, -0.06755010752636126, 0.06302905586051973, 0.16211478259015835, 0.13975817048985262, 0.14195917248137088, 0.11696356271963801, 0.13014361621904968, 0.11350172786388459, 0.11492044896412454, 0.18475641647453972, 0.09432281114447577, 0.05132030640995493, 0.026813508356283145, 0.025828753023296153, 0.013097943107427824, 0.00020258034655456104, 1.4088358031693004e-05, -1.1241640400069019e-07, -1.4881367448093303e-07, 1.0112658222693774e-07, 7.911245675481876e-08, -6.108057208666916e-07, -0.00011918104919880086, -0.002463059479672931, -0.0015795647601670748, 0.004370932320102928, 0.015132234094617933, 0.022723068956887166, 0.03557883028290589, 0.04709084461528595, 0.038037509336375896, 0.07106427739530866, 0.05363591383894785, 0.07950326185805805, 0.09274016715986352, 0.05010628901833238, 0.05568805962208774, 0.09063455340238617, 0.05183236076727254, 0.028286262886762885, 0.008066873134493403, -0.00045827615372422815, -1.274267623605083e-06, 5.671621499114384e-08, 7.270263864293791e-09, 2.958194701888035e-08, 8.612483650163926e-08, 2.496298234820056e-08, -1.0039052160350224e-07, 1.5216263671310503e-08, 2.733312004962361e-07, 4.041411238238733e-06, 0.00010864214726667244, 0.0007143644864058012, 0.00143194513032964, 0.003872269364455554, 0.00878836722923068, 0.0032692926868036955, -0.0002895926951201402, 0.0055782142050936935, 0.007952404127927784, -0.009778315784259743, 0.011947491617172453, 0.012359144047582813, 0.006822873758157883, 0.007832062701172607, 0.004221185719932094, 0.002267032094388855, -0.0018499846362986948, 4.835600367359488e-05, 7.459213900811439e-09, 1.5759087888563044e-07, 6.596557084681722e-08, -3.982094697686204e-08], [-7.032364579933745e-08, 1.2570191921470893e-08, -5.515277213828415e-08, 4.9836393280246436e-08, -1.4940118682350546e-07, 6.269076245348099e-08, -5.274009835250652e-08, -2.653255457820765e-09, -8.528381604687653e-08, -3.511904928676048e-08, -4.955471822573631e-08, 2.6468523520049894e-08, 0.0006560880848300074, 0.001344164519914887, -0.00010298757974441699, -4.3962674655545395e-06, -9.452291224337671e-08, 1.804240773255899e-07, 1.2609267223349648e-09, 1.24739591413e-07, 5.41827635552073e-08, -7.431755991205275e-08, -6.415821038647071e-08, -6.188752558979361e-08, 2.646984336761392e-08, 2.260275103233078e-08, 1.0395162431171235e-07, -1.402080969714415e-08, 1.0406263578494972e-08, 3.346566786511878e-08, 1.3705635428166848e-08, 1.0811056553232728e-07, 1.382493832629116e-08, -9.311188708575204e-07, -0.00014532152488699274, -0.0002102862326558445, -0.0019052620929568592, -0.0005955109862509334, -0.00014645520348593202, -0.00011142831298711373, 0.0011036271412024257, 0.0008841053371754784, 0.0013545324317621296, -0.006165997558529009, -0.024149392221467118, -0.011293957282188603, -0.00021378008646324369, -0.0011988054294079717, -3.336653767648706e-05, 0.001397057598461281, 0.00025298187545262575, 2.798967985329753e-06, -6.961204268866237e-08, 4.8239561379968865e-08, -3.381495695613278e-10, 1.0809330758012515e-07, -1.5397353930508738e-08, 1.6257125441990465e-07, -1.6278568690342923e-07, -0.0037575301416648155, -0.0017587546999770427, -4.474466565506371e-06, 0.0004006763586930561, 0.00017820916070857278, 0.000210078868937951, 0.006208239537785714, 0.007358693239994947, 0.01001351259387267, 0.009262905019287261, 0.01671251891755757, 0.018052487651495457, 0.030269978757485955, 0.02016980140671967, -0.0037858876546690533, -0.015164037273575817, 0.013190084448126495, 0.0181584451799705, 0.01283795862521057, 0.006597899175196444, 0.000607863894521393, -0.005953860575878425, -0.0022655168093141127, -5.895485709014829e-08, -8.553549374343849e-09, 3.679484247831854e-08, 7.555161532308062e-08, -2.1459451153074404e-07, -0.010964160431551627, -0.003559484938865372, 0.004687849525236658, 0.007979918268664843, 0.016080200785752133, 0.028853641570261823, 0.02157505756604387, 0.030277970492408005, 0.055936374427755925, 0.08654464578931415, 0.10943748809515466, 0.1501963931244727, 0.14763563698984214, 0.11274033499321721, 0.0878245918549507, 0.0773552262252881, 0.008628580617017738, 0.013387520691350678, -0.022239377249384296, 0.018184047841332703, 0.037811245897847026, 0.034901889286694875, -0.010376256615338541, -0.0029219198980026816, 8.616066624741196e-08, -5.2899309119677343e-08, 2.3974992893546336e-07, 1.6059024957948803e-06, 0.0004435311614418201, 0.0040230700114001865, 0.024250834291020366, 0.030881476920557326, 0.06303618267576813, 0.10756277590103515, 0.13975958321217907, 0.1822099576428912, 0.15756522163773307, 0.1983214851969438, 0.21835213276493656, 0.1686489860997897, 0.2286431915638469, 0.19843035130261838, -0.09030178347060341, -0.012599190755682032, 0.11776635554963225, 0.12439001495168531, 0.10453702400628351, 0.0820265992358604, 0.04664727223596338, -0.0036699025036062453, -0.009355372528541479, -0.0021852892069730615, 0.004079884866930004, -1.3081646575435205e-08, -6.372903253320707e-08, 0.0006176447174143847, 0.002209763319341934, 0.0030585305205031313, 0.023555027620353806, 0.05867625354543372, 0.13620790346377806, 0.16803139091400368, 0.2296070850874522, 0.3616584064044003, 0.3085256431191759, 0.3695781215986609, 0.35860817608514167, 0.2601171072087876, 0.1049480576762431, 0.1334962731901345, 0.16909091076351865, 0.17056391199796136, 0.18417109105117635, 0.1605890137438187, 0.035949030131561595, 0.06373213098937566, 0.1044732918129187, 0.06675646548441307, 0.01688186795922032, 0.0019573769717445184, 0.0056207045914213995, -3.761743711683498e-08, 8.489059750529366e-05, 0.0011456470313643435, 0.002122654022061869, 0.013024387429042848, 0.04791989441120795, 0.0898739038447442, 0.151301871176821, 0.09485594649587832, 0.2009724406720615, 0.3743627709235485, 0.27725484608629325, 0.4471409037627662, 0.40507394763526816, 0.35043936166349204, 0.6647740167661026, 0.6231970855768585, 0.32151379778890943, 0.14272716699586008, 0.09031789640476122, 0.12152249355999016, -0.1031850700294197, 0.009303192873654106, 0.06050089009170614, -0.012290398882615822, -0.002877874414599465, -0.006904480347166132, 0.0061374548511345505, -3.177079837737219e-08, 0.0013210466875542436, -0.005694839399106917, -0.015525644823160685, 0.005414254194070141, 0.09019402360633175, -0.012747303356342955, -0.013593680523119342, -0.13446165415194553, 0.017128210590260477, 0.006743682759649424, 0.20779251336256052, 0.08758901066387081, 0.08384568376182311, 0.21373779259649345, 0.237831387721526, 0.10292700037928534, -0.10925568096736009, -0.08532864283118465, -0.14511579599437324, -0.13148167491217416, -0.04775685326886794, -0.019142089715818156, -0.1186388291608798, 0.005335345481515318, 0.0815062893688435, -0.01948714841159155, -0.003462163897057778, -2.556794913700431e-07, -0.004225058325755786, 0.000614894926498973, -0.00996722019152883, 0.019223709395291853, 0.027999227610783706, -0.048159315539516585, -0.035239024304696415, -0.09498191647803436, -0.09697090367989813, -0.3263997827630564, -0.30964952455108835, -0.2751413997316827, -0.32945695384977614, -0.41979900391445124, -0.3711161716720333, -0.4152691607345566, -0.20476541123342165, -0.09170328896311343, -0.06039851480148123, -0.16814541093096566, -0.07939224020282334, -0.11505732446942825, -0.21569334717842925, -0.13956944985863165, 0.05654673833926722, -0.014984829736456467, -0.0049847472951304785, -1.6355237284823794e-07, -0.006932919382197069, -0.005934050587285741, -0.013223245381985398, -0.013779866771904528, -0.04166126486769972, -0.11423913629536724, -0.038951582877022196, -0.04955382441307974, -0.20911607837866408, -0.4457530333057667, -0.314424413575999, -0.6176208951753891, -0.5909082707267215, -0.6607103330222319, -0.35771458476311724, -0.3589407220380556, -0.07687657851675078, 0.07134467337351984, -0.05099446950268674, -0.12924386544028454, -0.14607434111962805, -0.25477267896519223, -0.19254078256562368, -0.15794566266117904, -0.07552058350215367, -0.03986139192446841, -0.0361043912568216, -4.080258955012476e-07, -0.005086066216064751, -0.037600151951749344, -0.05588895384668678, -0.09897102411128031, -0.09881995051512064, -0.18216272913384357, -0.046040034039884076, -0.09106041141662284, -0.4224198520177623, -0.3297772932007788, -0.3047678946539452, -0.27085296317757857, -0.5648908895718137, -0.47434363271782165, -0.40762013767978367, -0.3866837595626561, -0.042748684770155095, -0.10046741513625944, -0.08126921101724849, -0.20690284510427548, -0.0699211287264451, -0.12853989370999586, -0.22435782986677205, -0.16877935586074777, -0.12437091540386802, -0.04250878386551611, -0.00818222245162295, 4.340640114769929e-06, -0.002630505853077941, -0.08709974536583888, -0.12896781298431628, -0.2581318007375042, -0.21959237694444605, -0.18812160779999026, -0.11207807212548934, -0.2766986163658788, -0.19072117373943945, -0.003814963934491723, -0.3569667246371382, -0.12503480054383911, -0.310834838115445, -0.2844995716719949, -0.11829188839634239, -0.058175727416687695, 0.037275029280481126, -0.04633960849316847, -0.0037679458507719177, 0.016054693901076226, 0.0914549619278762, -0.1434399519323471, -0.07545236703505137, -0.05959292131661594, -0.044621471618740444, -0.013624455995177916, -0.0004475733139660332, 6.334713510457582e-06, -0.008791790977877197, -0.05509235378188744, -0.13127299255144406, -0.23779413125389084, -0.14031837851818268, -0.05320259125023715, -0.05785425918785364, 0.03773201604454385, 0.0630652219741534, 0.2113724115129319, -0.10083260126266988, 0.12665432719985092, -0.029825574995506882, -0.02232813539231139, 0.05549433538844376, 0.1874976405306746, 0.05059628238771213, -0.10270253245561599, 0.12176438054233178, 0.08158016734589, 0.09246240271530858, -0.05649637723029885, 0.055492217171333846, 0.07633615414955715, -0.032277118505498845, -0.04208456270429372, -0.0065525703246935895, 1.3436261663154023e-05, -0.015623821770310938, -0.039069554053519744, -0.06834303321767535, -0.13637133624118425, -0.09114759578056282, 0.00790025799847138, 0.24206752365776008, 0.2521841422207977, 0.2329894569997432, 0.15092059749674977, -4.5866379554763905e-05, 0.058879980654195585, -0.0009004371475317827, 0.0388614404494256, 0.16280093344488783, 0.3106175164619096, 0.17566653515316133, 0.09585968432565357, 0.21090632424474995, -0.03513778259667106, -0.12522771762939572, -0.04939182927326978, 0.022266082288146326, -0.07063230335742848, -0.08317739265922751, -0.020354037125636205, -0.004333824125855804, -4.562704901543948e-06, -0.01080016545275392, -0.026773869685598244, -0.03046501950349992, 0.10651402122939788, 0.17722131686705264, 0.12578449048424303, 0.2876348461785263, 0.16665934449155903, 0.11741747526149965, 0.09009792457392081, -0.0042330201873327184, -0.059852142687071945, 0.04252473142389195, 0.11150051065574824, 0.24849424170654436, 0.4308908958459511, -0.008164463624357477, -0.10690430422558514, 0.08623903856097283, -0.12184956245143136, 0.05212412396678216, -0.00913253006639482, -0.07426843895663285, -0.12731600960582812, -0.03721767598301259, -0.01970121171211386, -0.0005157673450397575, -1.2816128677321964e-06, 0.00023815397780811788, 0.01339198711611895, 0.039148584801436535, 0.10130758598909506, 0.037113841235906844, -0.016373228055916338, 0.07269507707042125, -0.061667168466568764, 0.10095083657235271, 0.09274963158839696, -0.015649852290003628, -0.07100058851123994, 0.15342968376736843, 0.1336943912072372, 0.20301985788066565, 0.33290187947912186, -0.14027089110814311, -0.15699780953004866, -0.16556205938748345, -0.19665372393499214, 0.05237919633296769, 0.14328612220978132, 0.05347381882166232, -0.10163313358816702, 0.02247260510914533, 0.05023509723499284, 1.821476082840945e-05, 3.8628152616075994e-07, 0.0008513745865851788, -0.007656161366428777, 0.01847598998789602, -0.00901323784898872, 0.031222120946445706, 0.03502905821029367, -0.029791126067321514, -0.11256096158615642, -0.05747437127113994, -0.060493150723739925, 0.0361061909825007, 0.09479407645245441, 0.07378598348552783, 0.04729126583575167, 0.1649438788904757, 0.09949650786151057, -0.02805180619839602, 0.06776770927681161, -0.049904550090318966, -0.18240996167699236, 0.045605768263194554, 0.067747930201631, 0.07971068646934701, -0.051287623580587895, -0.00981991983949848, -0.042451588682653627, -0.001535065354317275, -1.1112808292958598e-07, 8.582157250945914e-05, -0.008161533146014577, 0.015610195129759696, 0.05434041714726178, 0.1187522110674961, 0.000939626573339136, 0.03566939266839843, 0.02397657413892478, 0.0010168426733424552, -0.0073903741297363925, 0.09931047229252735, 0.196081661940552, 0.15715733591091433, 0.03954140468919003, 0.0030400744817893916, 0.1243735101722934, -0.10554419095324011, 0.0014505726566267916, -0.05084339285785548, -0.14083039712731407, 0.09878297174015845, -0.004572755409292193, 0.04423796220213062, -0.03900765266107729, -0.025828907734989377, -0.019719566562975046, -0.007960492365049613, -0.0004165456575838947, 3.179800560413585e-06, -0.011697097298875938, 0.043832192928803936, 0.09392164331260724, 0.08206605876417176, -0.0036505073664716047, -0.022764767789854173, -0.01647655074205873, 0.07962891846211335, 0.14468632843316115, 0.21275808562623033, 0.405085355229741, 0.2203786365118172, -0.11328066841005228, -0.0016889622352302012, 0.05180774302664988, -0.21956992235437972, -0.06141633306837508, -0.03615563161732465, 0.06146297033072938, 0.03696056280133362, -0.14093924546482842, 0.00335838703467564, -0.04326370805496055, -0.031004422857710108, -0.005734594942720529, -0.0018099311051995798, 8.041194317126666e-07, -0.0004107055986071305, -0.019140339955841506, 0.10150792348032815, 0.021783376320864696, -0.043413631823244064, 0.014516545220983574, -0.06440793927321657, -0.0028272331197577508, 0.19068220123138446, 0.18075047566215532, 0.20781393482081512, 0.10918614316604085, 0.06423272092885542, 0.0365565820294148, 0.08882638806113419, 0.03141588511178586, -0.22419095549270762, -0.02355912140878407, 0.020367298868752614, 0.0708592114197419, -0.03082959530367541, -0.08233323128899282, -0.016413743256954022, -0.027036641532935637, -0.022315763603288335, -0.003874424766012598, 5.737130031184602e-05, -1.5695114910173395e-07, -0.000165434823743068, -0.0012875845046511293, 0.04437617531055554, 0.024358954010176653, -0.18438854803137153, -0.17676128055729207, 0.01966170807099407, -0.08845707135807858, 0.05367214461367961, 0.2094971628649228, 0.16338408009476296, 0.18323070179689677, 0.10858655747598377, 0.18021312133430326, 0.1144875671981076, 0.14851661062079913, -0.07018135195881132, 0.16848213401546627, 0.1858658434662391, 0.14645784930134934, 0.08128628645382935, 0.027553548460041384, -0.005355903386652109, 0.0003909095586216356, -0.019050332779728105, -0.00015173577530685367, -4.9071881860162685e-05, 1.1272265708439875e-06, 0.00035167396863326354, 0.007467555606810712, 0.036907231143927646, -0.03192699373599562, -0.16043791992017775, -0.206299411013448, -0.14487483492384506, -0.12533727142866669, -0.022655706931302807, 0.02884223352087173, 0.06344382247292264, 0.09093402796361452, 0.054006064387545766, 0.16220763309176114, 0.14318614160188786, 0.04158006065248073, 0.15732225886102758, 0.27238862225150495, 0.2893172545925675, 0.22992904684399554, 0.1884496344968592, 0.14683206768100293, 0.03968661179861859, 0.0006613929887228984, -0.006961454046664748, -0.0008782627901906835, -4.5749601593642034e-07, 1.0776076878397435e-06, 1.7891949728632264e-05, 0.0068912009375665705, 0.004122362096412757, -0.05228609146163882, -0.05372800992637718, -0.15716007278224392, -0.15659129392342347, -0.07818736910241463, -0.123232001525296, -0.1047797052837822, 0.06925931695831007, -0.10053341761363757, -0.03214185615922886, 0.0801117782853907, 0.1256100276797237, 0.04301500932408204, 0.10320754368875186, 0.14906323956175316, 0.3121414577434896, 0.15901860847318386, 0.15461899516703892, 0.09145287968062439, -0.008265887094900734, -0.027579647317262954, -0.018710101691955566, 0.0009315556742059423, -9.81427743089827e-07, -2.0251284161966163e-07, -1.1237287828261905e-07, 0.010760308277543422, 0.009093214421957142, -0.009498553105522575, -0.05263152400210606, -0.09143554212184067, -0.06056268258519893, -0.028335041845678293, 0.03645467034993828, -0.02160246555442127, -0.0844483594741985, -0.07180043816620887, -0.024923668007347202, 0.09432500962158523, 0.16065923304784432, -0.09847708638559986, 0.06592334332170141, 0.11483019852037493, 0.20516481427701547, 0.1467099843849973, 0.11836224540202556, 0.05454837073259981, -0.04155907450146102, -0.03208060287810597, -0.009624963875652783, 0.0025210518479324264, -1.3560132900947775e-08, 2.8935398199308376e-08, -4.1960782133491874e-08, 0.012286314681654293, 0.014954402620681649, 0.018539854064094575, -0.030284601615244527, -0.03220863018237236, -0.09808024610072279, -0.0498780677457971, 0.07948025073588638, -0.016845604867582895, 0.009018498076025299, 0.04312508273843952, 0.11750974959890002, 0.11142156083502312, 0.05755250804569509, 0.0349173791130711, -0.07672574601998035, 0.06907053017057085, 0.04254340215925488, -0.0019484699329676307, 0.06833926847923294, 0.03700980827760073, -0.021001917027939482, -0.0021495882313443786, 0.0038626983983741842, 0.0008051998258941501, -6.095280408358394e-09, 3.465398070031672e-08, 3.882812388926657e-08, 0.0017546702842029284, -0.0021457374058447298, -0.026714513532860428, -0.05984958569261729, -0.0023984900793950145, -0.049152933401079686, -0.019518216806016984, 0.09754405488381919, 0.045068482602964505, -0.07895909085035549, -0.10530979198906046, -0.05061975901764901, -0.11860850123622506, -0.07896970235449648, -0.22270863680093544, -0.19332575398839008, -0.09393704825751899, -0.19708732319818179, -0.12865201507634916, -0.05721339850527568, -0.0018585286985139424, 0.01666333664196047, 0.00022234592190157614, 0.0006565901434787347, 0.0007891761814720183, 9.25126435856037e-08, -1.2676553039918514e-07, 3.099323591484623e-08, -9.990449841759237e-09, -0.0001369144106922211, 0.0034491755369950665, -0.013639126499631756, -0.03360805423518899, -0.055597278729260735, -0.06294053173477249, -0.07461854406316044, -0.13374452191687825, -0.12356911197133902, -0.18309049628599253, -0.3042926066943463, -0.18317289770099582, -0.08881794049893989, -0.12738456528155437, -0.037411027979935646, -0.09116977552965422, -0.15425230069544288, -0.12391971563434331, -0.0826600305173996, -0.019864446359265618, -0.0005258203392978954, 3.240929898321076e-05, -8.661676238732734e-07, -2.9022603022800847e-08, -1.994000336920766e-08, 1.0000921720316195e-07, 6.191130983804557e-08, 2.40772006751651e-08, 3.1282890548849213e-08, 5.568895551387859e-08, 1.7200478098192595e-06, -0.0028125164861517787, -0.01595317061214399, -0.0146982518212822, -0.00286501886466705, -0.03117290483805353, -0.018558162109190268, -0.003947503836929191, -0.00604998871272891, -0.020648045531249066, -0.0006523726667521561, -0.022601549815515015, -0.010400495626605362, -0.010365601388296316, -0.0032325149722296502, -0.0020688804547470455, -0.008891873638247165, -0.008074983490036592, -0.0008867504426910268, 6.015303184651127e-08, -1.0203455421660006e-07, -6.614902674789615e-08, -6.580222594619252e-08], [7.935778879216213e-08, -4.747581024447957e-08, 9.20084290594439e-08, 1.1981485914074367e-07, 2.0333399704975724e-08, -6.216599320681447e-08, -1.9071196715498103e-08, 1.046270515449873e-09, 7.357768178044817e-08, -8.905903256534081e-08, 8.843065956354799e-08, -2.8405238470748406e-08, 7.63860445920006e-05, 0.0008320757409721577, 0.0007400153860432894, 3.0947091047413566e-05, -1.600120392319756e-08, 1.854310974908656e-08, 1.4574744634309855e-07, 6.707628312185963e-08, 1.0098458464615846e-07, 1.307194655284361e-07, 5.0523102851018695e-08, -4.5949956585963004e-08, -4.259097977937168e-10, -1.2543752247690507e-07, 4.164539986356714e-08, -8.244064280910104e-08, -1.886686224176991e-07, 8.258629304096155e-08, 8.985199338338824e-08, -1.8626020440818576e-07, -5.512684082815875e-08, 1.208672047419525e-07, 1.2101518929481017e-05, 1.6650652653391165e-07, -0.0012671921758489273, -0.002138807763700184, -0.002409319238168535, -0.0029298103741411453, -0.0032227136733070125, -0.0012383888101345235, 0.01378527820740687, 0.022186007188206586, -0.022188412334885443, -0.006732347107026272, 8.442119890302008e-05, 0.0008803203695918712, 0.0018406508131885583, 0.004458241071996882, 0.0007417110658295831, 3.323651978240572e-05, -5.712334372938945e-08, -2.130358500557348e-08, -3.422816005676984e-08, 1.54122225436719e-08, -3.217783125660806e-08, -5.798766322668748e-08, 1.1579225435800515e-07, 5.914229878429985e-07, 2.9242806657909586e-05, 2.22721370110279e-07, 8.412377047003735e-05, -0.00031782735638961456, -0.003351117194759016, -0.008600626926870102, -0.006870978445224577, -0.006059081129043673, -0.023517508991383863, -0.048471380064981404, -0.07269840015208935, -0.03536950896494585, -0.037255104666854034, -0.03169724995117637, -0.0059210917761356565, 0.0012195791198863271, 0.0014050338665101878, 0.006964503418485651, 0.004786250347505551, 0.0013393820497920486, 0.0004513339749777218, 0.00015705170828021506, -2.4633712287690037e-08, 8.132831167257922e-08, -7.447749857157153e-08, -1.184906082179947e-08, 1.104299132138245e-07, 1.817561944638277e-06, -0.00010084032080787868, 0.00024040386743020813, 0.0012288705460988315, 0.0014057778599831316, -0.002802778241498609, -0.016279746168016317, -0.025412537148601144, -0.06873307858160836, -0.09110529410806163, -0.20153127560718292, -0.2507157262422132, -0.20314285173464788, -0.16073706652503075, -0.0733446378760999, -0.07783475324920444, -0.03618160827061743, -0.0502705205522843, -0.059246328788235846, -0.015443218152822112, -0.012811280371611881, -0.008739040580206303, -0.00046151907620188033, -0.0007913210912150953, -9.288505011921126e-08, 3.491388549824956e-08, 2.8643602649567287e-08, -4.494789139467755e-06, 0.00015974587190267518, 0.0010776851373832013, 0.00014507360369098643, 0.0009199727641171522, -0.0031613472547679542, -0.014740835386673888, -0.05935506795289423, -0.09832620720490066, -0.15477334953949773, -0.2032738100961567, -0.255154385816021, -0.1477398390543136, -0.017178347324763362, 0.09616462577013724, 0.059690486535297106, -0.09533293172583586, -0.027887171215947266, 0.028559629043517786, -0.07827467793606994, -0.06844158903077484, 0.0024475066348518307, -0.0031889773106798963, -0.009419493751022837, -0.007845716928062059, -0.001453223422635872, -9.611889606086696e-08, -6.082889713189516e-08, 0.00035341750348795594, 0.0024076297445598054, 0.0022783187571714667, 0.0061274361110792595, -0.0007307582402768004, -0.01420790052500971, -0.08823832812798106, -0.10565698424371098, -0.19796305678486747, -0.34030474463032473, -0.37765300521733175, -0.3081854861375327, -0.08627890489111706, 0.14810712566247292, -0.003543117539995692, -0.15769133965786752, -0.28391867208299815, -0.18687509712358516, -0.05732203730481249, 0.0008841565191626836, 0.03484363614303618, 0.05348078999306819, 0.044575802843490386, -0.03438272341426625, -0.0059846496718021745, -0.0012180800904479643, 1.1742218843505322e-07, -1.1969011962037273e-06, -0.001783000051827486, 0.004642569413820713, 0.005067809472486848, -0.0024961310354527214, -0.005968448144135946, -0.02809762959166998, -0.06820649122699557, -0.10717044029273795, -0.21537945159030228, -0.3411706029774505, -0.38829253051481705, -0.41086415391501, -0.14748128968776245, -0.04487350171455203, -0.09827808046322425, -0.10407282126317162, -0.12398484093372371, -0.13976917777525308, 0.02846172980719354, -0.07816046857254418, 0.05075601903716048, 0.09172384271037462, -0.013236658325303654, -0.056099969269334554, 0.0068067646775446956, 0.004244482792040005, -1.0258524183047613e-07, -0.00016817847270488985, -0.0014509968578443847, -0.0017245449083317004, 0.018930783507402273, 0.01786590930091989, -0.006429860997774559, 0.012659100146720179, -0.059177664944142123, -0.08102668980986906, -0.2095261707300744, -0.34814620180398637, -0.39935859428969117, -0.321297315525642, 0.014134134540778758, -0.03545647834988746, -0.09313103181713833, -0.09648300785515211, -0.12596766511572874, 0.03447939994153433, -0.035208230684942936, 0.03297666394673919, 0.13460582845729713, 0.09346416717250158, -0.11675575443824353, -0.09760416722645548, 0.016286127576246687, 0.0004944419232906692, -4.059193090863814e-09, -0.00014853668411048024, -0.00016028029689169843, -0.0005869545038359698, 0.018886521323942307, 0.012484400983327815, -0.01625198460062143, -0.03806939164148845, -0.07734300011836333, -0.08691265726430138, -0.1897859184094276, -0.3296137827099238, -0.4766917308117879, -0.35888337762511524, -0.029296579921115503, 0.023985085601527234, -0.08279514688615969, 0.05099156667804971, -0.07581426625762071, -0.060797247986648886, -0.029413157146490218, 0.06892508973538809, 0.07171917563828677, -0.015539243361201155, -0.07706152902635895, -0.043849869630981544, 0.013019928237822328, 0.00019762290291096886, -3.7341286580791965e-08, -0.000679380188418646, -0.00026645749201587314, -0.0013118387238533545, 0.019691469119561645, 0.009281308974393911, -0.02459489438159951, -0.03933058337138894, -0.08160809403408747, -0.11896230661890898, -0.20991703824758703, -0.34949495024809774, -0.48895136123853056, -0.3560207374187047, -0.14929108044902464, 0.1521840865789564, 0.39087422981320336, 0.19298340466826563, 0.023274596149567648, -0.1494623656358095, -0.16335488096749148, -0.06843651969737337, -0.01654989709241397, -0.05637840700983304, 0.028817233537856562, -0.0035305995259427053, 0.03570469762284056, -0.00030733741679194647, 1.2632549799367364e-07, 4.020166624125355e-05, -0.0035793938220106745, -0.0035038238849868985, 0.014922625688527093, -0.0035935177945436584, -0.05020078078738298, -0.05486510792697116, -0.09668387284403172, -0.13875638702912999, -0.13768766781808373, -0.2890085285950576, -0.32572582384353466, -0.2744606093243073, 0.03430720276119539, 0.31278330111661057, 0.4032802287234946, 0.1759819309862551, 0.01650487596827951, -0.07463801540129818, -0.0612338708420777, 0.031073673322079873, 0.0491456247457905, 0.1018786858728399, 0.15098636335064425, 0.11425507314118055, 0.03731049530169319, -0.0005002212161539163, 5.178713697198218e-06, 6.831530987488821e-05, -0.005694720934399999, -0.005192137505029477, 0.016710981617072778, -0.007862299656908225, -0.03730747201904161, -0.08195673818531046, -0.1505764531287357, -0.17228150935642164, -0.2116582549239742, -0.2495467385689026, -0.21456451777800037, -0.04897482625014248, 0.09746595039931938, 0.3627740910983031, 0.15403626866586334, 0.04375977232803141, 0.09557493024594704, -0.06093236314821857, 0.01381666377227036, 0.08277964284468306, 0.059126783701937136, 0.10356438361032078, 0.07744355444468848, 0.036010350600954, 0.0011813580772705122, -0.0011433361787042918, 2.8160087742055417e-07, 1.998987140006481e-05, -0.0077850368900510706, -0.006114820271933852, 0.02486151121232583, -0.040505913074899744, -0.05564392211544134, -0.0658134605627986, -0.1782729019535302, -0.15226833832992254, -0.24372587784216726, -0.17409502950451577, 0.04957232855194128, 0.07252900742331937, 0.3270375194508677, 0.2244957802253349, 0.09022910779854743, -0.0031464542994467104, -0.11276902494355746, -0.19875578220804466, -0.15425706974796263, -0.03423475627728733, -0.009322199197007318, -0.016415871203567585, -0.0427162052666436, -0.015151791912563523, -0.009145216687503921, -0.004817536833983645, 5.657016114355863e-05, 5.40469388825995e-05, -0.006490280612767467, 0.004690041283484244, 0.008721928420301355, -0.03858120213089435, -0.047599822467563765, -0.02626163032781961, -0.06442025346442803, -0.18848036893979073, -0.1893867693505857, -0.011628971709306051, 0.16664123833900457, 0.15817173280024172, 0.22443464683981748, -0.015259853136597234, -0.053260954975921086, -0.026223400804446285, -0.17553582165726778, -0.20388433998121858, -0.21777689728788754, -0.0940819481480169, -0.09559263161323925, -0.07876326151773563, -0.05693770356049974, -0.017203943314197223, -0.007276502352483893, -0.002665799568143708, 7.752138593443125e-08, 1.4344703105182695e-05, 0.0005281212224254709, 0.018329124301449572, -0.017362512570893444, -0.03738698419231115, -0.04104164792197413, -0.03895566519429956, -0.057878417817227586, -0.05156091481782549, -0.0015039093246443068, 0.1315261946149139, -0.014892548664540869, 0.0005801113287815182, 0.15600440882637456, -0.05457322733467041, -0.005321680331499566, -0.12650622643975692, -0.18799452616966816, -0.22082630272316417, -0.15187340926966172, -0.08542495774461902, -0.06230839265021961, -0.05942636094399349, -0.012182236952064926, -0.0011720591593168336, 0.0012462713735548934, -0.00011757991836472324, -1.5358839690128528e-08, 1.7670503513195607e-06, 0.009355686974029994, 0.0007349781545198274, -0.009664686505235413, -0.008077785241011154, -0.03261444569099361, 0.04033154871445697, 0.022672584132576827, 0.017553773127591373, 0.017150949688557706, 0.08706329770110287, -0.08230719876235679, -0.01096034515133882, -0.11250924486077009, -0.04997412907947456, 0.03955483751982374, -0.19340712516042413, -0.17935645085180651, -0.18256218680097394, -0.1140235332245607, -0.07029187223041021, -0.04020846512523643, -0.026587675508686744, 0.00398146416437231, 0.003917906585626299, -0.004134247751147307, -0.0025486350405623448, -6.47145123292186e-08, -1.6457549713848412e-06, 0.004854973317968893, 0.00259780713708181, -0.004679823291068703, 0.06298449652060305, 0.021587412600629307, -9.022923674421339e-05, -0.04990881763632617, -0.09262847147849121, -0.08273141099112785, 0.011351547480912216, -0.009528846680133093, 0.0800169304770844, -0.09371439279028985, 0.021099938272075812, -0.02842240156624977, -0.09205737600213089, -0.12508542245369178, -0.12681748096054965, -0.06438412804512385, 0.012244817008160967, 0.032844612438649154, 0.06472127142420592, 0.08305001907968562, 0.0062552056911542525, -0.00666754600606702, -5.842076300282463e-05, 5.24390784895073e-08, 1.7545086891850925e-05, -0.0022336151493249252, -0.0007438332311579348, -0.03248764791213233, 0.020214748364739462, 0.026561423817053384, -0.06683146310798123, -0.13043023537795098, -0.021369728502353205, 0.03064183107869497, -0.01220294565108757, 0.07234885120032375, 0.05978052728316624, 0.0227169970219985, -0.13752247449856703, -0.048209044428162935, -0.09141679058381005, -0.04806304462162895, -0.0333471124651653, 0.01728582020619773, 0.03406210931752547, 0.045167432011960745, 0.05364989010729051, 0.04485590935097778, 0.022392181274665454, -0.015948623163156043, -0.00034003660281880843, 3.916476467046468e-06, 1.1702807448739214e-05, -0.0008913958304932952, -0.0022823544656018204, -0.06602761716242499, -0.07931360076659622, -0.10198452670798545, -0.11669437741270478, 0.02254969355409762, 0.1535300752987049, 0.21670643494754535, 0.12352614575780216, 0.1849690852103448, 0.19420388680157774, -0.011593514547396237, -0.11828816762595412, -0.25427133349351205, -0.1308614092706778, -0.09595464029516748, -0.043882083745308866, -0.021423339439882557, -0.04358496033105145, -0.024542881144026158, 0.00909568709365702, 0.03146603778549079, 0.04059716108738729, -0.00797773410739887, 0.0011056537691360646, 1.0196767599152797e-05, 0.0008958960727105461, -0.0010886236100707616, -0.00686547524058576, -0.09102940980120555, -0.07651966172231456, -0.009357754188975463, 0.03245291597018333, 0.1470356828359807, 0.26884402114818856, 0.1706781816520565, 0.18682419908118472, 0.1735648335952359, 0.16287547188038373, -0.16255276166413457, -0.30855631002446104, -0.30745728824226626, -0.2529130282456135, -0.11400587705668103, -0.06847656021683309, -0.08453384654832653, -0.06783658332648236, -0.0441426078007739, 0.0018676692029646145, 0.03318517732804137, 0.04369137721335617, 0.0021134701259724314, 0.0005795757478765657, -4.873509058570516e-09, 0.0021219856797964954, -0.0009493909830758578, -0.01811773813454215, 0.008200230411570236, 0.012500168833911727, 0.06971005953412675, -0.08206195624867398, 0.08248207374415054, -0.0021022969670251345, 0.0027088261737476214, 0.04024078543452037, 0.06804337697251736, -0.1476511573844536, -0.14927306602615836, -0.37695785911809726, -0.3050358885708014, -0.30688370662458087, -0.15940164055002704, -0.08199023793022982, -0.027446410444080655, -0.10458175810063829, -0.07003064403229337, -0.008827681307410873, 0.02985054677595865, 0.020341570013943575, 0.0029148804442155323, -1.9774753984887448e-08, 4.3291024456828736e-05, 1.0350252399421168e-05, -0.0013672411919527392, -0.007273857367657319, -0.03221111733055962, -0.019723466894119253, -0.082787565907668, -0.17469501218633535, -0.09484438598017533, -0.04558654800863353, 0.0600649879949608, -0.0966220318954644, -0.1024997737475582, -0.15135033430772504, -0.13020145472755523, -0.28770523426855193, -0.3286223457014177, -0.25701778069154896, -0.1702145556343805, -0.11395210882987442, 0.036704133863194176, -0.005644037669785975, -0.00865131346789257, 0.010181598010659364, 0.03816843435537087, 0.006637067241185429, -0.0008600704532932753, -4.8843174935077455e-08, 4.192815498476209e-05, 1.2849589749954372e-05, -0.0011974732829244227, -0.002138303850095042, -0.013774331464441894, 0.024250059293789174, -0.03349192451066612, -0.21610693358687572, -0.06166797036136113, 0.011409565217738126, -0.13564397720489363, -0.21343239045500215, -0.2459009735469489, -0.004655602957801709, 0.019443363114302618, -0.2426734202593033, -0.19527506521369664, -0.20096994622436076, -0.12328532961005954, -0.008326269275226287, 0.0877015847285595, 0.04968795043945082, 0.026886058042658915, 0.03668059953783738, 0.00643452274299566, 0.0035495525680579896, 0.00223872646645238, 1.2893679479940673e-07, -9.085486306333151e-08, -8.214315761471306e-08, 2.1921334859662604e-05, -0.004391502938601583, -0.011890354204122553, 0.021481183326128424, -0.023080060297369653, -0.12299824681566701, -0.055435816890024955, 0.005390709364922944, -0.07215255159967729, -0.07776165274297556, 0.07185321464195739, 0.07276933904861949, 0.0035195611234777953, -0.08863756701445061, -0.0670929725473508, -0.0662423509764195, -0.0750056200453673, -0.028165701116441372, 0.07258389319652361, -0.009448112700886016, -0.005329272924538921, 0.005404874772099145, 0.005736489798280264, 0.0036375367624724296, 0.007009644915883906, 1.0980176188673465e-08, 9.193162782955809e-08, -3.0820327501340905e-09, 2.513740516404955e-05, -0.0035190675807290853, -0.01368070581614927, -0.08248289131201428, -0.13368940112914035, -0.1475741045448514, -0.05771792374034226, 0.05492607526157871, -0.17478872318856623, -0.1558093585428284, -0.12317682292629978, -0.07729973709661232, -0.03165228399852091, -0.07256407153921315, -0.045634221457316305, -0.04180304273471511, -0.042837981337155384, -0.009875729682157714, 0.001650034631948212, 0.006637957477050081, -0.0013861201676016919, 0.005105138114912474, 0.002741029214691518, 3.1074985950213394e-05, 7.199284124476747e-06, -7.982581590010113e-08, 2.612836186123472e-08, 2.3385772631133237e-08, 4.099913938418173e-06, -0.001984037919477741, -0.00625571936257367, -0.011355117298369343, -0.060029991111089066, -0.058163741108459246, 0.12038528638911908, 0.10430803273335708, -0.16458393790791678, -0.14127313545572634, -0.09042779579681487, -0.08430377919362003, -0.09870951979032985, -0.1203224933629498, -0.030051988787885675, 0.00010141546831217431, -0.003162123343101613, 0.007070841678502108, 0.01535378320649124, 0.006564811928763667, -0.005449638458894884, -0.0027599319401770874, 0.000325978047130109, 2.7051048192317448e-06, 3.2492204101117e-06, 1.9303060128535963e-08, 6.329187247518933e-08, -2.901714381084543e-08, 4.9170587204740226e-08, 3.366118840460977e-05, 0.0008179742033693722, -0.000979045900284432, 0.0012306244508353112, -0.0005031894099784131, -0.022777171516410327, -0.02802964025453023, -0.05070524615566771, -0.04806587282177805, -0.11627435046929668, -0.10140501707816499, -0.045024317776543796, -0.011598909013053044, -0.012966990288485214, -0.005074664294946836, -0.0006269554544081932, 0.0009526994530344026, 0.007455158026588261, 0.004606998910371361, -0.006560641318847435, -0.00024728624143382344, 1.9218531439962446e-08, -2.8746237852802224e-07, 1.0118434021239056e-08, 1.0106575128136016e-07, 9.572510294593491e-08, 1.5722577269630018e-07, -9.078268466977056e-09, -1.878047754060972e-08, 1.1357700808956879e-06, 4.6631184480569844e-06, 3.796865826468696e-05, -1.006935923034418e-05, 7.644463172729863e-05, 6.459989168761866e-05, -0.0008691108428319202, -0.000526293464839934, -0.0006996663668759197, -0.0007947079452517458, 0.0003239823411915872, -0.00024164490677752742, -0.0003371284678424412, -0.0002316693613988415, 0.00017437864378908236, -0.00047087454837555057, -0.0010644476592152191, -0.0024047239250227, -0.005481971677384605, -0.0012219992857754984, 3.6001322156858226e-09, 3.731683064272086e-08, 4.6564657643579346e-08, 1.0692897888466289e-08], [7.203029283655416e-08, 1.1405339020591863e-08, -6.21388256981943e-08, -9.382650963537345e-08, 3.004517736332572e-08, -9.599908244030934e-08, -5.727226436795912e-09, -8.317486019030367e-08, 1.2906287405767925e-07, 9.119901024400418e-08, 1.6883541130724673e-08, 5.843071383944149e-08, 0.001681583826573085, 0.005047096883563541, 0.0015189795608829672, 6.327411395263393e-05, 3.634676001728184e-08, 4.584673086151673e-08, 2.466709965828034e-08, 4.352888615950772e-08, -8.860786875038702e-08, 7.164875333080455e-08, -2.3229208621618282e-08, 1.0220427198059303e-07, 4.0712499819377776e-08, 1.4231377600411095e-09, -1.0649329086284734e-07, 1.0495737495622517e-07, 6.925375466953877e-08, 2.6427023513792475e-09, 4.959873919506294e-08, 1.7923328965439342e-08, 1.430992051821543e-05, 4.58913587827602e-05, 0.000935283185005292, 0.00034708054433986365, 0.011695432352260246, 0.002321635253180247, 0.0005348745599844871, 0.002745689495430232, 0.008199151485350534, 0.01037666476601647, 0.021510931924820904, 0.02925361539818691, -0.008536058251313592, 0.0010763930837314369, 0.004956458377930829, 0.004975636845965831, 0.0028015663078785804, 0.0016144352217941015, 0.001983587873799463, 0.0003670517255755268, -4.822729487822066e-08, 6.8954045591893345e-09, 1.5127412582244634e-08, 2.6495301487300214e-09, 8.832996857443248e-08, -1.0000163652365926e-07, 1.521173858493498e-06, 2.3172621219273833e-06, 0.00015237770577446706, 0.0004921587559504783, 0.0018778676208396322, 0.0033857414683332748, 0.011649619713768473, 0.005788188756292636, 0.025876596973295262, 0.03048735587158291, 0.0357478648894804, 0.07365444648113947, 0.051876489992779606, 0.06270677294290819, 0.03329152187844876, 0.01647843795010756, 0.04999360958651343, 0.08455164954027827, 0.014695438642928724, -0.002472592336235789, -0.0006183439167487185, 0.0008141809141009353, 0.0003600235064748916, -0.00031224688335707197, 1.3710774595320883e-10, -4.451299362913607e-08, -2.8545504177284866e-08, 1.865167821134212e-08, 3.144420196259902e-06, 1.0392370476359204e-05, 0.000799299873889829, -0.01233554321025849, -0.010229842404368049, -0.027925313629830105, -0.012016951836470056, 0.01236516164452733, -0.020357382809314047, -0.04511227957126635, 0.0005725940357076247, 0.12299620572404528, 0.006764683768252809, -0.06003890326350518, -0.10090964285683195, -0.03387487490689518, 0.018914032692330544, 0.021455303849142186, -0.02865855183798594, -0.0035192228651233248, 0.005579557495457211, 0.014440633987376538, -0.006065952751935324, -0.0040689984239888535, -0.00010759548979683981, 7.608969631234e-09, 1.0455290407802737e-07, -2.7380114632942e-08, 1.0483905685983226e-05, -0.0010904656040238055, -0.0049191415832969725, -0.06804159803989622, -0.07095750643599175, -0.07139347024784984, 0.05501035859602291, 0.1215869544342052, 0.0721436848061009, 0.06423622964944153, 0.011020230821869844, -0.027284014463728853, -0.020292293928437226, 0.07058816941039442, 0.19069229503337, 0.06910954532694444, -0.042164378636062, -0.006105024078293959, 0.004649050998267839, -0.02846638330008176, -0.04723409565336013, -0.039221297812844995, -0.023173928998992264, -0.008344201474744612, 0.004784510273058721, 0.0021248367674721507, -1.2895423873731414e-07, 4.124842148279792e-08, -7.767263011035419e-05, -0.0034293991296250434, 0.02646957542700684, 0.03315203528557929, 0.01790559055583858, -0.01408713474177127, 0.057874712414008087, 0.1587055494703167, 0.06826376663841714, -0.12251266708720565, -0.054520030267937294, 0.02764541396173177, 0.030822311274230497, 0.09566355062779629, -0.006416690707544564, -0.12590215163253837, -0.22791462962130773, -0.22066952882471724, -0.22073649475336313, -0.05130349889800063, -0.06663138872487186, -0.03399902675113858, 0.030720755707608162, 0.009750831082345588, 0.007438995443060269, 0.0005717630100969223, -1.0271562643572684e-07, 3.604008957035692e-06, -0.003503301166356748, -0.007092424211101074, 0.022616787729487296, 0.07736926104852532, 0.158126214906823, 0.17146582245886252, 0.03177142050792556, 0.011749767852908738, 0.05844401029741605, 0.14098995741389714, 0.051207029388213456, -0.08497373922994837, -0.13749421980458984, -0.13680360257281188, -0.17015142202295697, -0.04004877336508398, -0.2270480418134784, -0.13910963203336843, -0.08856543359099678, -0.11994375248030904, -0.09269700897426035, -0.053824763465976685, -0.07400801537055066, -0.012362407491003292, -0.01124849972771138, 0.0029830796246051922, 4.313190904778163e-06, 0.0014736039091252946, -0.0032339792718491934, -0.00017338932269393096, 0.018328932850024533, 0.03639861938904141, 0.15083960158273993, 0.22707629312681726, -0.05383693990739395, -0.018483183231312858, -0.028544477501965072, -0.0034986882376110847, 0.04605046380996219, -0.15152776112224087, -0.15953333746681472, -0.14243976101641723, -0.2475685759656486, -0.07235688864999917, 0.048872124108504535, -0.03985444320066425, -0.05437950755586148, 0.06418725141019138, 0.013330467970218364, 0.02177576244642593, -0.125698854528727, -0.06769728349640856, -0.010445056538905938, 0.0023970160857108335, 1.7717777874824646e-05, 0.0027422065573333427, -0.002326401268864724, 0.0053441009624151554, -0.04063905362852133, -0.023120462813368995, 0.1151509005406435, 0.13840651782266183, 0.014773040653411158, -0.026153076801536734, 0.061462185041354984, 0.0057701733017868516, 0.17180601394052286, -0.051390474708963706, 0.060082881005860546, -0.00495991904432383, -0.1262556317957948, -0.026661192243528864, -0.055624578335608604, -0.05710868501829873, 0.014138019603020743, -0.03792437847095726, -0.057429965828502565, -0.10921374843960298, -0.14788596193531015, -0.08146897056326424, -0.004472234434570394, 0.0004304293064405665, 5.125087615700909e-05, 0.003246660223820712, 0.01722598320185167, 0.028201437852593898, 0.09881829178250112, 0.1299506814459773, 0.13943157166191983, 0.13776847639246798, 0.07937277759221913, 0.16209231098994714, 0.10516024860654387, -0.039843665371766625, 0.011149629463162258, -0.016414828601083467, 0.029039048884983508, -0.007936747422623153, -0.04288719034045217, -0.04696609977338747, -0.2491647175989399, -0.08624995080950049, -0.10830862069463976, -0.11613955058896731, -0.13863240574299676, -0.11554995971466156, -0.054725443327808175, -0.04310167297490246, 0.004553257663290101, 0.012309704060312496, 0.00012280202972052873, 0.004063523619883433, 0.04595815423190139, 0.0018560388401140542, 0.1456340017004761, 0.18522134137716392, 0.1749031555875159, 0.08500638279016923, 0.010093938278740456, 0.09070936831929588, 0.04651198889134415, -0.15116454906118787, -0.12156005207422242, 0.16059926123195478, -0.04479872951543282, -0.05111971214744955, 0.011300070913307762, -0.08409267512008178, -0.0639282665489816, 0.025789375953746613, -0.0007883736864053314, -0.10599574882084817, -0.09857123755401755, -0.06541483416763426, 0.063994369266238, -0.017638822561054573, -0.0020358991403036136, 0.005604227170136888, 0.0010053117162877943, 0.005392148499170269, 0.021901285193638095, 0.03383627572495346, 0.105082631803456, 0.0934388334913745, 0.12069880490962942, 0.20255390376668825, -0.02363778219914061, 0.03562132940818473, -0.017810913397502657, -0.1420093323424145, -0.2075307386689154, -0.04195694985210575, -0.09997956497991935, -0.1157324836446577, -0.13228903063548353, -0.02729732858325347, 0.010859016205424888, -0.05089498381036857, 0.049805367286637495, -0.08613927859135914, -0.13178203667681865, -0.02715939109873421, 0.1444029343032587, 0.021935001691054914, 0.010066113946107295, 0.005605747983444044, 0.00020332944498495386, 0.0065497783702391605, 0.02310748623562935, 0.043398519383806775, 0.0786563192934295, 0.026556232328406548, 0.04643238274593515, 0.13323525380523282, 0.04368899327062911, 0.03974401881442781, -0.25202452873206216, -0.21599106359395642, -0.30009743428152463, -0.3930611936094606, -0.08639417584087167, -0.11074990203548106, -0.1237500240869133, 0.05431075315268043, 0.08699823460555636, 0.02706243092566452, -0.040390551338775955, -0.12159544138239829, -0.1116170959296085, 0.000635994147592435, 0.14475189479521466, 0.04631565759637423, 0.026421460786866077, 0.01605992405781327, 2.843952695159533e-05, 0.006756540646636756, 0.023458231340338528, 0.06212473585312974, 0.07472089758157835, -0.016007963342614537, 0.00985714441839028, -0.11148156985335476, -0.16357103601007217, -0.22589141292332895, -0.3880312912807281, -0.21629513357840552, -0.35920784943895057, -0.46823239025540125, -0.18773879247198197, -0.06341993798856718, -0.14020486018002998, 0.05278344758242512, 0.03846024432497545, 0.01962196673085672, -0.16376072122576674, -0.05493809178462829, 0.016560635317058925, 0.04602609195351194, 0.11595044079273073, 0.0363728620385948, -0.006882791341584665, -0.003038152436265152, 4.2976553205259484e-05, 0.0007956225252028299, 0.012206381564717277, 0.011152972299311992, 0.033043300461952634, 0.05992612320829025, -0.02903779551814342, -0.1876221182694313, -0.32303969916633346, -0.49576601273896514, -0.5195984080347812, -0.31246570548903246, -0.35288633180735585, -0.12082440207411894, 0.13022028868951196, 0.014456920827307134, -0.05562320973417534, -0.15006440752041983, 0.00897534642412208, 0.02928616975090977, -0.19738103612324698, -0.11786511703006611, 0.012228093536424853, 0.14760185724428254, 0.09533125966630382, 0.015499504656235572, -0.002168507848405274, -8.898816500876184e-05, 3.4344431798326995e-05, -0.008580569102886392, -0.006980881311242087, -0.009328890745226992, -0.03102906358141406, 0.011680417500784865, -0.09566397013791554, -0.24572843921731408, -0.4195581846584124, -0.49071346524757375, -0.4888045741691322, -0.12916740362598683, 0.030267794932678494, 0.3849185044976206, 0.35176392670529094, 0.056925294642711045, -0.09737154370630474, -0.022449436808059615, 0.03395064231471657, -0.046319178470683106, -0.08512156687836138, -0.106425404942541, 0.02703085023306323, 0.09347556867856624, 0.06356000060007802, 0.0195213403752985, -0.015338928362674625, 0.00021824644139564653, 0.00011612353655066017, -0.003959207817001465, -0.010830322811603515, -0.009624022319175689, 0.017599152289409305, -0.08212404061323861, -0.10894788290144483, -0.21379328029687775, -0.27551259610106565, -0.3777219231134004, -0.33591736322803145, 0.014445270225117856, 0.28751624505727325, 0.4102702348669895, 0.3488472598050284, 0.08199714511602378, 0.2151346125227893, -0.061486037966615795, -0.0137724492558207, 0.04606116337698035, -0.15637886584923186, 0.016373942853483623, -0.0038327540481740974, 0.052644077200987655, 0.08142081925175425, -0.021825103952175105, -0.009362982347658526, -0.00018667385821041795, -2.2423621742712403e-07, -0.0013825322131970972, -0.009788039743841822, -0.03786782940168054, 0.009863113729476623, -0.04154661405095349, -0.095678790749715, -0.31137169291810685, -0.48110145675071364, -0.45795115090826455, 0.05839128534077358, 0.39668707158680155, 0.4637026355512224, 0.2050059854630673, 0.11339405162598777, 0.05105645076918498, 0.09485554781342646, -0.18466071588536084, -0.03688014844224482, 0.0819024542407002, 0.10657682578264517, 0.13006417211942575, 0.1032078568005462, 0.07085417379116804, 0.08757423812028686, -0.018367796507973058, 0.004528780967497375, -0.0016959733544296579, 1.2209681419389104e-06, 3.833407706422306e-06, -0.0012989332262651726, -0.03777694559537158, -0.08027879973164607, -0.07825536446048098, -0.2682195182597563, -0.39762562818236524, -0.5292573389263966, -0.4258075186039394, 0.14412450583646683, 0.5722821609990889, 0.5201027374341242, 0.21480100582985936, 0.04336536199302951, 0.21334054162435945, -0.13950718168923232, -0.00638005970829756, -0.0293941975381975, -0.03642119287854446, 0.09622775366045806, -0.040134672372781545, -0.04177161828956076, -0.08976313378548526, -0.016080005143177645, -0.007835199361021747, 0.007396029081771293, -0.0022676453906722125, 9.101809850314568e-07, 0.00013382020790258167, 0.00043677149624470784, -0.02974006500561343, -0.08890867522144386, -0.17316848084929512, -0.20926457896669817, -0.2775063850307967, -0.3681209316894431, -0.21286103689181843, 0.39300891327301535, 0.6511802114419382, 0.42606256113759905, 0.21211343717241704, 0.052350308263673484, 0.24608018103670373, 0.05919167180466902, 0.1507875854409675, -0.09230352379127099, 0.050343929923274466, 0.07473278572566805, 0.025823767944352004, 0.040709556289178106, -0.12882664453016954, -0.08719015495545449, -0.018969236383550372, -0.004476145771679722, -0.00021546326392721132, 1.0575426833085065e-08, -0.00011169682555429403, 0.0007703812640698797, -0.01731186696299194, -0.07849268155181874, -0.20866811808451946, -0.16055045772618068, -0.1798019659643818, -0.26940863336016496, -0.30479299462079584, 0.2281662772685376, 0.4957583115218239, 0.4200094980208274, 0.29474134769215193, 0.16037341487937642, 0.24181115988457416, 0.15680530394989511, 0.042838313824525465, 0.11927103776691436, 0.23017880038890215, 0.08232955520813334, 0.03992239779774272, 0.01306799877002342, -0.13653173433846527, -0.08057482958505008, -0.026471543423259147, -0.0011960279774625737, -7.435292161668136e-07, 